DDR1,-0.13921626,0.076207764,0.40053526,0.36891133,0.028720599,0.5056443,0.3328757,-0.5000725,-0.063933164,-0.33246264,0.35115752,-0.17545994,0.36715633,0.07036172,0.31060082,-0.07217287,-0.22603922,-0.19848506,-0.24131976,-0.30236885,-0.1665383,-0.056670714,0.33437306,-0.28660735,-0.026136544,0.07558019,0.15031905,0.022011714,-0.06298709,-0.089062035,0.30141404,-0.20742774,-0.13667436,0.18000269,-0.13670747,-0.1802973,0.63289416,-0.17690347,0.26984915,-0.62886226,-0.09001239,-0.6161861,-0.09410255,0.6146173,-0.37022483,0.026988303,0.2681031,-0.7174949,-0.5040168,0.07343509,-0.1684924,0.3446784,-0.038630504,-0.036301974,0.029915802,0.2324439,-0.14896636,-0.12808819,0.14486887,-0.008622517,0.117329925,0.36200517,-0.0973518,0.13106664,0.53175324,-0.01605334,-0.20353892,-0.06205451,-0.278047,0.14277324,0.4016916,-0.18494685,0.6136096,0.042765208,-0.24876416,-0.065182574,-0.17467979,0.18356608,0.3580448,-0.10801328,0.37408116,-0.026856525,-0.16336912,-0.10298245,-0.023422142,-0.06098533,-0.1664768,0.14577703,0.015994718,0.34491208,0.29951483,0.16816002,0.23933989,0.24528787,-0.07385057,-0.0722237,-0.16695696,-0.42769927,-0.29864419,0.11711329,0.30475974,-0.04122071,0.18347995,0.4376692,0.34537268,0.06532168,0.76006776,-0.15449592,0.12962069,0.4185494,-0.009050465,0.31218347,-0.23306912,-0.32927617,-0.07303645,-0.20267043,0.25585487,-0.04089125,-0.24772182,0.56446224,0.019343767,0.17590512,-0.3363435,0.23581384,0.3818277,-0.06591308,0.40962613,0.02322521
PAX8,-0.1694782,-0.22701843,0.19094644,-0.4084594,0.5824996,0.36601022,-0.11778086,0.0400346,0.17397521,0.09407597,0.19050393,0.035611764,0.3554497,0.3191051,-0.22976409,-0.2943895,-0.2022346,0.047243785,0.16299628,0.008847332,-0.11174822,-0.068571255,-0.4730233,-0.037604455,-0.17412645,0.24820319,0.20946418,0.11100734,-0.2799256,0.20732416,-0.08012642,0.08803373,-0.18729892,-0.15820807,-0.5931992,0.34983626,0.29270524,0.1338593,-0.15428239,-0.14955941,-0.30160272,-0.9761895,-0.032739848,0.13504055,-0.49663392,0.25610387,-0.054958437,0.09975,-0.45852134,0.21527359,-0.13520843,0.29981825,-0.11461278,0.11325551,-0.22143708,0.006877467,-0.33869028,0.15884537,0.032250717,-0.4427545,-0.16933222,0.25496244,-0.2569101,0.03432286,0.43112808,-0.0619745,0.43243358,-0.044597544,0.012809153,0.006078648,-0.14293534,-0.30659008,0.4164848,-0.47065902,-0.09187123,-0.1705812,0.29678836,-0.14817211,0.7569138,-0.17830396,-0.043878425,-0.38276073,0.06362432,0.20234606,0.13043408,-0.38235632,0.032017782,0.2793969,0.13125758,0.5359477,-0.2627593,-0.011765739,0.1871224,0.19806176,-0.18558145,-0.022849346,-0.3057827,-0.42381343,0.0893281,-0.042724703,-0.0053450796,-0.12395895,0.6384298,-0.34292662,-0.016621435,-0.45822695,0.07080879,-0.057512406,0.29016656,0.27829352,-0.022275189,-0.09758635,0.049429044,0.1525545,0.25194624,0.22092795,0.09240833,-0.2638273,-0.426481,-0.123458005,0.4114638,0.48299846,-0.18266544,0.32209155,0.6101864,0.094278276,0.25445592,0.38257197
RPS5,-0.14721383,-0.050101653,-0.10869886,-0.07286468,0.3850219,0.0188889,-0.19371939,0.08363406,-0.108511016,-0.02890409,-0.14319399,-0.19140868,0.14732437,0.15997447,0.5039606,0.20412138,0.048394825,-0.06824277,0.1989829,0.02641738,-0.489043,-0.18955687,0.071227014,0.14351955,0.14540894,0.104600005,0.024243057,-0.13661641,-0.5411977,-0.43322158,-0.24900849,0.08889649,-0.37638557,0.086659,-0.3402283,0.27112108,0.30110502,-0.16745894,-0.033549123,-0.30750263,0.32426396,0.2029661,0.13626197,0.025101462,-0.13477424,-0.018703979,0.305373,-0.06704438,-0.32500967,0.26962107,-0.22731377,-0.27906546,0.0029320405,0.17058071,0.057821196,0.2816013,-0.014468316,0.13264775,0.0011371834,0.3448992,-0.00966266,-0.057199124,0.13992845,0.19054976,0.11020461,0.096402556,-0.20954011,-0.09577753,0.13889405,-0.07018591,0.23030509,-0.47083986,-0.013548153,-0.09676005,0.004464063,0.02623889,-0.19375324,0.093337655,0.19238514,-0.06437035,0.020966288,-0.052390624,0.23961648,0.023066156,0.118770875,-0.17463529,0.036185518,0.005954799,-0.334726,-0.058007807,-0.22249259,-0.018416042,0.13713577,-0.008710087,-0.00012231027,0.025652327,0.2883772,-0.041902106,-0.054390207,-0.10643842,0.19644631,0.35078135,-0.19415037,-0.1972274,0.16353244,0.15262486,0.15705602,0.49429008,-0.017108416,-0.4188921,0.4848937,-0.058051497,0.036865234,-0.16477093,0.10149341,-0.007935226,0.032821078,-0.37137386,0.016436001,-0.11759778,-0.045298506,0.03138204,-0.12712324,0.17825648,-0.43218327,-0.01177181,-0.03898677,-0.15816529
ABCF1,-0.36733583,-0.2748858,-0.10639542,-0.31630337,0.9241832,0.071498305,-0.11835636,0.12506765,-0.055003867,0.63383967,-0.16384919,-0.094262384,0.031002594,-0.4461517,0.56633216,-0.009873381,-0.17219569,0.25520226,0.11687615,0.2281003,-0.71236706,-0.51416504,-0.4386597,0.0145339025,-0.03363446,-0.15746115,-0.26767355,-0.2706862,-0.47643963,-0.5760261,-0.29219997,0.27051836,-0.11277083,0.29026023,-0.13269968,0.48494807,-0.11314166,-0.25131062,-0.22574629,-0.4403309,0.5128912,0.22478306,0.30385834,0.0036125449,-0.18315503,0.012291325,0.1492188,-0.13757104,-0.036117774,-0.24238454,-0.32271305,0.21493487,-0.11950085,0.37304237,-0.24235521,0.10889818,-0.161908,0.041322805,0.045052465,0.4445457,-0.25908184,-0.16714448,-0.23649897,0.30249035,0.07979352,0.13303931,-0.15211378,-0.14162877,0.19311813,0.10582138,0.4553739,-0.30061552,0.2694959,0.27455056,-0.1441839,0.27574164,0.030541696,0.28816968,0.52482396,0.11577014,0.27329078,0.40414605,-0.20412047,-0.60787827,0.05409164,-0.09802263,-0.12332594,0.16282266,-0.012224544,-0.32670653,-0.26658982,0.14301567,-0.08926528,-0.60096425,0.017167002,-0.33994958,-0.5637305,0.054221015,-0.16604152,-0.18474196,0.076483,-0.12518112,-0.16612084,-0.5748167,-0.012105021,-0.20857702,-0.043138035,-0.021216149,-0.1721198,-0.21227308,0.022078512,0.07864999,-0.005725783,0.13174754,0.3048558,-0.37523058,0.113993235,-0.25582442,0.09154829,-0.21547593,0.21536864,0.09578408,-0.43144983,0.22977902,-0.14562367,0.1953995,0.40223658,0.50990903
SPAG7,0.29239064,0.5024919,-0.11133379,-0.11846763,0.1985447,0.04869695,0.11588161,0.21933115,0.20978877,0.45185798,0.3309364,-0.30762368,0.40534,-0.33333838,0.23453504,-0.35134074,-0.42779195,0.5157879,-0.13068177,0.068753965,-0.15219983,0.237118,0.04674496,0.15720616,-0.20911291,-0.24614717,-0.23124722,-0.49448416,-0.6203365,-0.5468851,-0.24618064,-0.18297498,-0.15738188,0.72306126,-0.40846008,0.28164744,-0.11228634,0.4878888,0.44286844,0.14923222,0.7063274,-0.016981868,0.10006232,-0.5180519,0.25100157,0.58331704,-0.13348354,0.34912407,-0.34935027,-0.16303477,-0.6337763,0.32363135,-0.25715354,-0.14122428,0.2635112,0.00096480997,-0.18299654,0.3469817,-0.43852246,-0.04646817,0.21234532,-0.32975712,0.187225,-0.34455216,-0.11044816,0.030317042,-0.22194752,0.7649777,-0.2452957,-0.36719877,0.034778804,-0.2778142,0.58012265,0.2614986,-0.42102215,-0.15639508,-0.050392877,-0.5686785,0.30011672,0.50267977,0.27769902,-0.6775468,-0.26170412,0.06428597,0.3848062,-0.94952404,0.119933195,-0.52254075,0.21302184,0.1781809,0.029809712,0.14128807,0.009343367,0.70036906,0.0022151454,0.021792594,-0.30016217,0.057017826,-0.22643805,-0.0066656764,0.17805475,0.17926686,-0.2106407,-0.4843813,0.062077697,-0.23977695,0.2644618,0.59724766,-0.32436764,0.4735722,0.06744197,0.13327883,-0.3019145,0.32104445,0.10501929,-0.4520264,0.10417797,-0.3295727,-0.20580666,-0.45669907,-0.8749259,-0.01670567,-0.043730833,0.22232379,0.12285129,0.03144801,0.2232941,-0.0057021272
RHOA,-0.01073554,-0.10743569,0.007954777,0.18067397,-0.10759625,-0.12771854,-0.15610418,-0.18875758,-0.32792875,0.039019234,0.38349754,-0.12131054,-0.15169623,-0.15189332,0.33443168,0.07539866,-0.025061812,-0.00937839,0.13524494,0.1476212,-0.16733833,-0.10716891,-0.26820678,0.08105979,0.10556424,0.102168724,0.010566891,-0.07872616,-0.2975134,0.05686279,0.17063102,0.12571649,-0.009788447,-0.13381827,0.10639534,0.024758125,0.17423701,-0.3635544,0.2502703,0.07433279,0.28248683,-0.3907201,0.23715077,0.13853827,0.42617005,-0.2338799,0.08065584,-0.24903256,-0.24569203,0.14964671,-0.14273664,0.004882242,0.0038849004,-0.049132053,-0.18668418,-0.2508378,0.056294426,-0.50327915,-0.028170519,-0.14225839,0.17095116,0.2615328,-0.08537607,-0.5066632,-0.10033377,-0.035741284,-0.013962131,0.05519621,0.3145855,-0.046362836,0.07788172,0.18330671,0.044766106,-0.15318885,0.08916862,-0.13111228,0.15192658,0.3159314,-0.009153163,0.23820977,-0.24032296,-0.07574779,-0.010281875,0.029172251,-0.0067601795,-0.31665477,-0.0777952,-0.06386826,-0.022506475,-0.19438446,0.02883629,0.32941744,0.05528023,-0.09166203,-0.09042676,0.038595285,0.18404014,-0.18655874,0.16740109,-0.14826855,0.35498324,-0.21716215,0.3328519,-0.07390542,0.23190182,-0.37723124,0.054354385,0.24022315,-0.1598873,-0.051212423,-0.05649199,-0.121582106,-0.28784642,-0.19871643,0.07552028,0.045053102,-0.34763882,-0.04694137,-0.3278543,-0.29349563,0.25232103,0.18800253,-0.04884583,-0.05528158,0.3158877,-0.03355739,0.031394575,0.057728253
RNPS1,0.14858109,-0.17835957,-0.11393206,0.07630916,0.35864753,-0.17345269,0.16846277,0.12992711,0.037236977,0.053240154,0.064987235,-0.18859926,0.02535597,-0.10651968,0.056770124,0.24275623,0.039425515,-0.10253569,-0.011980954,0.14960504,-0.38340142,-0.16033375,-0.20906007,0.09007264,0.094795294,-0.0680056,0.10513579,-0.11631142,-0.31813207,-0.25784907,-0.4104238,0.28893852,-0.23731661,0.061541665,-0.3878807,0.3515176,-0.11799789,-0.1897891,0.0015310706,-0.2023944,0.37509045,0.16493574,-0.18044455,0.18549575,-0.1904131,0.2758644,0.2208297,-0.27198902,-0.268214,-0.025898667,-0.5226364,-0.110969834,-0.123630084,0.4233131,-0.045329172,-0.15043698,0.09511186,-0.03350557,0.19273645,0.3396879,-0.15995584,-0.21765396,0.47082856,-0.06302216,-0.034864757,0.20674455,0.16590172,0.25550064,0.2849504,-0.24289437,0.15271424,-0.40664512,0.016029121,0.012322144,-0.01638214,-0.18589896,-0.0783549,0.023505965,0.28349757,0.108900815,-0.25281987,0.017218836,0.20656607,0.096043944,0.03720811,-0.15482612,0.09262721,0.16846412,0.12909031,0.14526437,-0.005816513,-0.06756975,0.08064568,-0.20096482,0.0044481577,-0.07451662,-0.011552042,-0.044233795,-0.13592671,-0.06382031,0.41920474,0.23679428,-0.28268594,-0.19548634,0.056469202,0.3254598,0.22051018,0.41484267,0.37687683,-0.5813925,0.422624,0.14821431,0.026207915,0.027553998,0.24174906,-0.39742982,-0.004554554,-0.18280287,0.04353058,0.1287383,-0.029002456,0.16642636,0.025821196,-0.14598392,-0.0149336355,-0.15260963,0.09671928,-0.16887884
SMNDC1,0.057695813,0.06253389,-0.1377798,0.22604552,0.15826061,-0.05258879,-0.004093325,0.07646753,0.10057208,0.06812056,0.026077956,-0.30819377,-0.012500416,-0.06575479,0.10089734,0.39245576,0.010020112,-0.060051423,0.121418074,0.24256937,-0.2746283,-0.11361354,-0.12241708,0.18367916,-0.11017275,0.16361974,0.41273835,-0.1196028,-0.24416955,0.09865553,-0.21854872,0.26248166,-0.095397875,0.03898115,-0.39778695,0.25060156,0.13149431,0.12857018,0.11642503,-0.0035229935,0.31729373,0.2735561,-0.41547272,0.33130196,-0.1934898,0.21058239,0.23769021,-0.2988338,-0.38287908,0.1687383,-0.28141648,-0.19056872,0.013956224,0.3146686,-0.09520391,0.003463955,-0.13361593,0.0696487,0.07685795,0.21012358,-0.028786743,-0.26872844,0.49946317,-0.04619478,-0.01530905,0.11005061,0.17676537,0.10167715,0.37969324,-0.48116547,0.18562911,-0.2247071,-0.013566492,-0.113665536,-0.00032203435,-0.081509985,0.005359077,-0.035664327,0.073414005,0.072316654,-0.11268458,0.061655402,0.16063833,-0.008842089,0.02890156,-0.102780424,0.06373325,-0.11841007,0.33190867,0.15400505,0.13038562,0.1235127,-0.08778304,-0.12813683,0.0038180784,0.16935542,-0.20721366,-0.35059816,-0.51718533,0.363265,0.4190389,0.23969093,-0.23032995,-0.17627823,0.3561212,0.03838786,0.18829615,0.44074374,0.4252308,-0.33418438,0.37883532,0.08318196,-0.18942285,0.242292,-0.024062201,-0.5636119,0.035656847,-0.18788746,0.025799198,-0.34227198,0.02792739,0.1505775,0.23891382,-0.40907335,0.21447197,-0.18258998,0.13439418,-0.021328302
ATP6V0B,0.023011012,0.23161115,0.4877002,0.1236884,0.6872937,0.4909874,0.5011982,0.12698317,-0.018943198,0.0052227736,-0.15566826,0.40472433,0.2353625,-0.22840424,0.32677674,-0.118719384,-0.22101986,-0.4300056,-0.0789224,-0.2526972,-0.0021458007,-0.5368371,-0.15633991,0.31040287,0.038756203,0.0030826144,0.1800521,-0.11382423,0.073886625,-0.1905842,0.09110135,-0.22893035,-0.12921785,0.06808139,-0.20946832,0.4157625,0.41073605,-0.24502394,0.392275,0.090981714,0.18183139,0.25391623,-0.1219365,-0.26260367,-0.6538032,-0.015440898,0.10315294,-0.2856162,-0.7782967,0.37234047,-0.36026126,0.22105828,-0.07539275,0.13664135,-0.20094994,-0.26284787,-0.4539868,0.22317863,0.41699854,-0.0857993,-0.20318717,-0.021328336,0.21554849,-0.1811482,0.2240951,0.017311107,-0.29174992,0.018835973,0.10393149,0.09908211,0.021580076,-0.092583984,0.15620187,0.09768725,0.06406403,-0.046221573,-0.3193239,0.10898846,-0.07303114,0.58814526,0.44922915,0.42738104,-0.010287705,0.05430955,-0.116989814,-0.1401923,-0.58629245,-0.09909318,0.3598583,0.0107169235,-0.09152033,-0.12298751,0.120763026,0.27377304,0.04523229,0.1929547,0.10137426,-0.04713667,0.10339445,-0.02011229,0.3795532,-0.076555535,-0.085550025,-0.26198545,-0.13413237,-0.15814047,0.5989602,-0.0016983071,-0.5196742,-0.1464629,0.3120687,0.057243727,-0.44529635,-0.12090836,0.052300338,-0.018714871,-0.0035141776,0.26893774,-0.16896497,0.1154533,-0.11533885,0.019173477,-0.050539073,0.22553936,-0.5476472,-0.21164055,-0.33386514,0.31354463
RPS6,-0.21740903,-0.13506755,-0.068303056,-0.26573345,0.378965,-0.17119086,-0.20702694,-0.03503895,-0.07670276,-0.29168865,-0.08522617,-0.11235096,0.0062690545,0.086594656,0.34230834,0.129856,0.1943067,0.12939413,0.19601417,-0.03286223,-0.5496194,-0.13550453,-0.21718538,0.30653256,-0.021530854,0.43228564,0.002873491,-0.060503747,-0.48811778,-0.26366186,-0.3708233,-0.07925925,-0.4257738,0.10630814,-0.24149072,0.26002344,0.28268147,-0.23577555,0.10673282,-0.4428052,0.25345862,0.0596168,0.042449,0.051658884,0.017706184,-0.01104511,0.3864235,-0.077287175,-0.14223616,0.16248725,-0.12067169,-0.22954625,-0.024194425,0.07924081,-0.22509009,-0.026162986,0.12168062,-0.07229601,-0.18694092,0.12338871,-0.04102802,-0.16923437,0.16852088,0.3513757,0.37117156,0.25466755,-0.2014924,-0.08402953,0.16131443,0.041250724,0.09016892,-0.5588653,0.008428054,0.012706184,-0.0013245055,0.09221961,-0.2766357,0.1092731,0.17105328,0.033708572,-0.12938051,0.11576967,0.25981787,-0.06256496,0.06071622,-0.17959152,-0.068905994,0.13865004,-0.19148174,-0.13048735,0.04660236,-0.01913065,0.19078854,0.13806291,-0.14159006,-0.15696429,0.15729682,-0.19333518,0.039660186,-0.074767984,0.23412333,0.20665604,-0.3209839,-0.11147316,0.09731245,0.14811781,0.24227582,0.4312887,-0.02167248,-0.35321128,0.20533742,0.0042891637,-0.09882877,-0.14551196,0.17760456,-0.13604942,0.1279049,-0.21671829,0.08214476,-0.021100927,-0.24135669,0.07820687,-0.032873195,0.22443347,-0.08601398,-0.32917935,-0.05019809,0.050829343
USP22,0.4057529,0.18371567,-0.07201281,0.033615578,0.29513857,-0.26239085,-0.5930828,0.27257982,0.48309073,0.16772634,-0.3961988,-0.17393054,0.23482502,-0.3954435,-0.2636374,0.25027803,0.4049735,0.0078556435,-0.11527025,0.0015366807,0.03435064,0.11119697,0.04324467,0.68713146,-0.06473174,-0.13016874,0.7411821,0.18927257,-0.107243836,-0.19093335,0.19040541,0.114924125,-0.23055942,-0.112360366,-0.36166602,0.16550583,0.48052734,-0.07820261,0.5081409,-0.24736768,0.173248,0.39899114,0.06019332,0.15376142,-0.15035523,-0.16945909,-0.09216807,-0.32955396,-0.0809636,0.14650123,-0.14702716,0.31373572,-0.3430796,0.4047376,0.22323573,0.013736149,-0.11620185,0.2683167,0.36648726,0.39646912,0.017607182,0.05150144,0.4108821,0.25597015,-0.19276424,-0.31927586,-0.36314708,-0.04454227,-0.19433717,-0.31430405,-0.089900404,-0.31581455,-0.34338906,0.1103541,-0.10068762,-0.31607887,-0.06778551,0.14775237,0.79324526,0.11709466,-0.112060614,0.10019689,0.6031236,0.06343921,0.0759347,0.11795216,-0.22733678,-0.22436641,0.018238582,0.12479441,0.017608307,0.3029536,-0.06312415,-0.21968684,-0.012839796,-0.09585413,0.27059203,-0.36626077,-0.0809373,-0.15559587,0.18019721,-0.042341802,0.2125527,-0.26324594,0.08755415,-0.41033494,-0.16552106,0.25710812,-0.032925513,-0.03224085,-0.49033844,-0.0455495,-0.24659413,0.17411397,-0.07118958,-0.014340457,-0.097689815,0.010126106,-0.20747277,-0.04438346,0.014425113,0.15498203,-0.40410262,-0.02422453,0.2728188,-0.5514924,-0.2929236,-0.34856313
APP,0.008804238,-0.10032695,0.33227032,0.036977217,-0.17478484,-0.021426262,-0.33335063,-0.02884083,-0.09782564,-0.016381413,0.058551524,-0.09445582,0.10357198,0.2600773,0.33988282,-0.41176474,-0.17743464,-0.17049944,-0.18823446,-0.1156883,0.066841245,-0.10348313,-0.04588791,-0.30292302,0.4040574,0.25618854,0.05646075,0.095062196,-0.28350425,0.004539708,-0.012580147,-0.010527203,-0.11382275,-0.013173435,0.046283174,0.13208807,-0.21870182,-0.12665257,0.017299015,0.11098611,-0.19887887,-0.013923829,-0.15591605,0.10496329,0.31397164,-0.1383497,0.23850088,-0.041993562,-0.39350888,0.0847318,-0.6852623,-0.026288975,0.14682756,-0.37597018,-0.23105086,0.15198739,0.034242794,0.026630325,-0.015462466,0.019879457,-0.31955054,0.40768048,-0.2193054,-0.056693316,-0.15877728,-0.39874098,-0.08091761,0.2426335,0.30312413,-0.087961584,0.25039756,-0.1889607,0.02748433,0.4523369,-0.21702245,-0.08577438,-0.09718024,0.24678984,0.17033786,0.31814831,0.28484833,0.032085616,0.2434914,-0.19481932,-0.016625982,-0.074467756,-0.16942841,0.116033435,0.014455676,0.0052595427,-0.079166405,0.15706138,-0.08311269,-0.20295966,-0.13384804,0.099103704,0.41565907,-0.19583298,-0.09514007,0.011967575,0.28523275,-0.008422785,0.1511685,0.024873199,0.3417564,-0.5491011,0.21620812,-0.034936633,0.14534038,0.097283594,-0.19672343,-0.036547158,0.035498157,0.26088753,0.05674495,-0.04244439,-0.0042879214,-0.14670917,0.0166613,0.099940434,-0.1898702,-0.06662816,0.0199855,0.15878978,0.103264704,-0.025124595,0.43336353,-0.08280078
CLTC,-0.23129153,0.16403158,0.31983817,-0.112715095,0.3283852,0.2700078,0.045658074,-0.009147776,0.21388076,-0.09411862,0.16380319,0.08013128,0.33086646,-0.20768088,0.17363064,-0.3188648,-0.027582677,-0.15900584,-0.03041611,0.0411136,-0.02063046,-0.21569437,-0.0485081,-0.06325521,-0.11199331,0.079884306,-0.08627389,-0.07497437,-0.4913532,-0.12718602,-0.0006168287,0.22286998,-0.20563246,-0.264002,-0.0024081739,-0.27403948,-0.02311642,0.021919124,-0.026267339,0.029655762,0.25141206,-0.08307047,-0.12388352,0.24155977,0.34945276,-0.29897133,-0.050739102,0.25485587,-0.15710007,0.1932866,-0.31333312,0.20716536,0.29320687,-0.11484669,-0.29208574,-0.0409904,-0.108166024,0.050520267,0.25989646,-0.09097772,-0.048206557,0.17495856,0.11148131,-0.1150579,-0.02496552,0.20921732,0.1167089,0.34285793,-0.038482144,-0.121435516,-0.21944693,0.21858393,0.24093655,0.203531,0.27403712,0.31176862,0.10035406,0.15801172,0.067252226,0.19518447,-0.18291336,-0.0638673,0.33304447,-0.16204225,-0.052887425,0.13571453,0.008896971,0.027141549,-0.06410133,-0.17309454,0.18028028,0.2705596,0.18920493,0.17889191,-0.17408128,0.49910852,-0.12481334,-0.532641,-0.04363367,-0.06351044,0.46047154,-0.2068314,0.40804031,-0.03912417,0.22633567,-0.08928887,0.21488217,0.449041,-0.0909496,-0.14645913,-0.03165833,-0.1271125,-0.14565496,-0.0048953076,0.019946434,-0.25989097,0.26419887,-0.13120869,-0.24774802,-0.13386396,-0.18667881,-0.0050584297,-0.35686436,-0.36276639,0.13257965,-0.2774536,0.084204406,0.09282138
MLEC,0.06932175,0.054808285,0.75919807,0.40779653,-0.24071845,0.17920144,-0.16949931,-0.32085836,-0.2284601,0.1788238,-0.1407244,-0.07984696,0.32509223,0.069388114,0.42441794,-0.030484246,-0.16267742,-0.21432383,-0.10468633,-0.36311543,-0.26894474,-0.15638809,-0.1824172,-0.034126833,-0.1084346,0.36893657,-0.08130875,0.0898103,-0.06442593,-0.04304492,-0.066434346,-0.036026295,-0.007522078,-0.25942877,-0.25740123,-0.00768309,-0.31012595,0.14087118,-0.11406636,-0.119015,0.22705255,-0.24511202,0.113342196,0.10853805,-0.17780696,0.100435644,-0.098607,0.09649075,-0.32317406,0.513622,-0.019879906,0.25088626,-0.12210978,0.0063454937,0.3120352,-0.033890665,-0.03221807,0.061899226,0.7481656,0.42207503,-0.13201667,0.32733634,-0.011929091,0.13181074,0.1308532,0.296283,-0.4414948,0.057994913,0.25992888,-0.2682341,0.35341144,0.64457923,0.32238752,0.19344908,0.046252307,0.080755554,0.24989763,0.088400856,0.529805,-0.088527285,0.3671128,-0.009695154,-0.12581024,-0.08557116,-0.40657538,0.09088163,-0.10003852,-0.3358719,0.17452754,-0.17667355,0.023467273,0.47051734,0.03184724,0.109243296,-0.17153719,-0.077231646,0.05355389,-0.23792028,0.12793179,0.02719349,0.39927265,0.36236128,0.012169547,0.039268177,0.054121427,-0.15087174,0.6885982,0.15177688,-0.23532091,-0.07065255,0.3086733,0.5203595,0.038836822,0.014578731,0.48516113,0.22997858,-0.28499666,-0.24213092,0.18812725,0.23157825,-0.056892216,0.055379167,-0.22814296,0.15022475,0.01740003,-0.20455822,0.050969392,0.19055647
CSRP1,-0.23951563,-0.30073762,0.5222228,-0.05743633,0.3051013,-0.09909072,-0.08059419,-0.0020680202,-0.17353836,-0.269886,0.6709297,-0.50365,-0.3004157,0.25470078,0.6966276,0.08533681,-0.14099526,-0.1098087,0.36697066,0.26188734,0.0046742074,-0.13616899,-0.049430065,-0.09517697,-0.13130924,-0.19870119,0.10779276,0.24219522,-0.2923274,-0.13503306,-0.07099888,0.11148985,-0.28118142,-0.77301306,-0.37354982,0.37118787,0.012033247,-0.003880095,-0.155672,0.3475597,-0.027143404,-0.25203994,-0.028595975,0.3537442,-0.36030516,0.16446538,-0.17291439,-0.3296097,-0.25143886,0.08136287,-0.17568554,-0.13276246,-0.71740735,0.21594718,-0.025471158,-0.36526695,-0.12034692,0.03043727,0.28448448,-0.38892302,0.40745124,0.533768,0.15809232,-0.03225493,-0.169065,0.06892356,-0.00555314,-0.053559653,0.0021014633,-0.4999417,0.3586,0.20772171,0.33257037,0.5759792,0.13071395,-0.8435594,-0.057920314,0.3440872,-0.5030891,-0.11743205,0.00040683575,0.11021506,0.19248596,0.051403787,0.1593006,-0.073841065,-0.1756671,-0.5221583,-0.20392121,0.12759215,0.04720721,-0.21123144,-0.10560028,0.07404281,-0.21547754,-0.31308848,-0.28032815,-0.25993764,0.37481758,-0.19669342,0.15060554,-0.058704864,0.6895644,-0.2384223,0.43995816,-0.18235038,0.2758471,-0.09442662,-0.3467908,0.1882722,0.03358914,-0.30426985,0.020912018,0.026546553,-0.3106534,-0.2226627,-0.0739326,-0.43207473,0.0004785904,0.07711993,0.14874728,0.47307768,-0.20742686,0.004378093,0.39891422,0.23316848,0.35055983,0.09575365
CALM3,0.04750738,-0.34977496,0.018319124,-0.13647199,-0.1669889,-0.13740759,-0.041509308,0.11438956,-0.0668123,-0.1642378,0.14944401,0.1369208,-0.20262472,0.502894,0.09308273,-0.1533301,-0.3668621,0.09597208,0.032558937,0.3174216,-0.58737487,-0.34873304,0.08319493,0.27415726,0.19223395,-0.43234378,-0.15154439,-0.026551222,-0.62727344,-0.27437636,0.1607575,0.019841822,-0.58801925,-0.22801886,0.00069786754,-0.2792621,0.45698443,-0.0059400424,0.3202433,0.12065375,-0.11099033,-0.16237855,0.28005314,-0.023809722,-0.06201397,0.10925695,-0.09825489,-0.25114945,-0.11955575,0.4596505,0.41244105,-0.1802094,0.046999007,-0.25831708,0.07509943,-0.117442645,0.06561524,0.20322941,-0.0015407505,-0.12887129,-0.05792947,0.157048,0.20601833,-0.004982813,0.08837146,-0.4938874,0.16432711,0.35863727,0.04084211,-0.44453973,0.14036822,0.25551963,0.34486258,0.34986284,0.2088753,-0.013740735,0.1028517,0.041728966,-0.32982278,0.0017878232,0.13398318,0.1889526,0.024433015,-0.117234424,-0.02025031,0.01233636,-0.18028712,0.21521538,0.28750828,-0.12706177,-0.15033726,0.004647262,0.19670996,0.048921496,-0.30402377,0.24777699,0.14951803,-0.3693498,0.2449811,-0.091033645,0.21694313,-0.13478428,0.10934973,-0.13070002,0.5862332,-0.30882236,0.49079177,0.53559965,-0.031037778,-0.050100587,0.22115512,-0.091577984,-0.2901551,0.12314033,-0.021780932,0.3339117,0.13332674,-0.0082857115,-0.1596199,-0.16609083,0.21025145,0.3435007,-0.048949305,0.09809403,0.2769698,0.3218431,0.38060924,-0.1189955
PTPRF,-0.17991765,-0.7210006,0.33177465,0.1363497,-0.12634256,0.52288175,0.088051595,0.049923006,0.14595649,-0.24918468,0.1058285,-0.1270221,-0.36916927,-0.48138973,-0.046848033,-0.40786126,-0.1694878,-0.0787504,0.09682939,-0.14415549,0.0054401183,-0.029652566,0.32011783,-0.011428568,0.4633551,0.061591953,-0.052893933,-0.58451104,-0.062357735,-0.3000063,-0.045729704,0.26314607,0.15487301,0.061307177,-0.94740593,-0.19525632,-0.17177679,-0.2331869,0.32699516,0.004754717,-0.20565477,-0.0013225934,0.094524905,0.37830585,0.4132273,-0.2840027,-0.035193592,-0.41161656,-0.65746576,0.10182427,-0.00805786,-0.16620529,0.2190169,0.03252217,0.16749914,-0.13655603,0.24876763,0.18767843,-0.10062772,-0.40760803,-0.17140928,-0.19678693,0.033347063,-0.48372173,-0.10453292,0.103359595,0.31048146,-0.24753183,0.5339068,-0.14820923,-0.28944182,-0.27925485,0.5613881,-0.07636613,-0.3117994,0.17332104,0.084609374,-0.11631068,0.24398597,0.24806173,0.20266558,-0.24037161,0.022324901,-0.5289297,-0.099415556,-0.29397082,-0.31331545,0.08296042,0.54396015,-0.058062192,0.11162059,0.004123674,0.09618224,0.016137287,-0.47778684,-0.46704888,-0.17405942,-0.33090258,-0.44377825,0.1345892,0.11243257,0.13625379,-0.0585051,-0.20509316,-0.17708021,-0.30634326,0.7479862,-0.07753437,0.15131314,0.03560266,-0.036672674,-0.14728254,0.3537676,-0.3609686,0.06095934,-0.3471288,-0.11036666,-0.17786115,-0.34333834,0.23498484,-0.0036134627,0.5622915,0.1270518,0.30624044,0.315787,-0.14424041,0.4026363,0.3437076
DNAJB1,0.19430426,-0.00802034,-0.06538784,-0.048238367,0.023601435,0.09506096,-0.33881682,0.23271611,0.11841224,-0.27286804,0.25855753,0.14756495,0.4306674,0.3017716,0.3595499,-0.07449461,-0.036395006,0.09993248,0.089810506,-0.030762987,-0.077423796,-0.025288418,-0.54332227,0.40410557,-0.10756403,0.40108147,-0.16112968,0.18652128,-0.36480355,-0.28332478,-0.092887715,0.45231017,-0.2947688,0.26955143,-0.26855022,0.17796846,-0.47963676,-0.16318522,0.007913507,-0.033339776,-0.15778339,0.13800684,-0.2551466,-0.43461254,-0.10435793,-0.29810965,0.037269685,0.26952842,-0.13946459,0.4357514,-0.40816513,-0.43024567,0.13455011,0.21078289,0.12730432,0.05233488,-0.5187213,0.2011667,-0.049060162,0.1978776,0.41954976,-0.2687029,-0.29787877,-0.24984452,0.19200096,0.55799025,0.022922492,0.21012676,-0.30075595,-0.43050975,-0.03676818,0.0012206853,0.075105466,0.16327207,-0.18720686,-0.026900653,0.005987064,-0.07213059,0.15038401,0.43782634,0.0874627,0.18066181,-0.047206063,-0.006467101,0.030470453,-0.17032212,-0.26111856,-0.20950106,0.01048129,0.030711126,0.003801664,-0.3667627,-0.06188931,-0.33574066,-0.18135035,-0.08654051,0.06789195,-0.040104885,0.3438913,-0.19354482,0.1700872,-0.07820366,0.118734874,-0.6635605,0.5770948,-0.08720006,0.31430832,0.3544797,0.17350903,0.00746373,0.1958665,0.24017869,-0.14521381,-0.027628195,0.0033353753,0.22052744,-0.14477785,0.058717825,0.1334605,0.15778545,-0.37116042,0.09103324,0.33373475,-0.07158406,0.18278216,-0.105994694,0.028479867,-0.2056852
XBP1,0.020840598,0.10843696,0.07284182,0.04697929,0.58101124,0.10460288,-0.6189596,-0.08427677,-0.032066625,-0.20906882,0.2834993,-0.0029370717,0.11847497,0.36343366,-0.008905163,-0.0788762,-0.16614467,0.20804983,0.12785846,-0.26501787,-0.34548756,0.17253238,-0.18402664,0.18386447,0.4031521,0.7506942,-0.044989895,0.43135124,-0.34317577,-0.015351093,-0.02592344,0.13594225,-0.21845728,-0.2875893,-0.53903246,0.060247555,-0.08537514,0.22550386,0.26266935,-0.022374341,0.29757345,-0.12586112,-0.29974672,-0.18875891,0.14654674,-0.2101498,-0.24345477,-0.024088224,0.1523279,0.2718542,-0.2851336,0.115334824,-0.07436098,-0.027185505,0.061599035,-0.024589758,0.4384437,0.20679213,0.100189194,0.7152784,-0.23990053,-0.04900121,-0.008465879,0.035785213,0.28790283,0.30494088,0.058727644,-0.04085041,-0.12239798,-0.1113162,-0.09055592,-0.04021311,0.17898856,0.11532785,0.20953874,-0.08193589,-0.10704714,-0.2422751,0.048950505,0.055791162,0.44660297,-0.011807002,-0.2390045,-0.032103863,0.2959765,-0.6328274,0.108641945,0.0018081805,0.15849943,-0.31194314,-0.2003584,0.43252152,0.22508149,-0.18864273,-0.2246387,-0.08360004,0.05751582,-0.07403188,-0.13725814,0.0069897724,-0.042859115,0.38771853,0.17797498,0.06552302,0.46846938,-0.3170929,0.058745533,0.15206797,-0.17872535,-0.23126179,0.03249519,-0.04186971,-0.123265386,0.047978062,0.2269705,0.11010638,0.30073458,0.36113232,0.31267324,0.03046647,-0.1956808,-0.09732807,-0.1373113,-0.1702596,0.78721976,-0.3306941,-0.06622476,0.052607093
GRN,0.2859535,0.26177505,0.42424443,0.32683885,0.18412197,-0.3229806,0.44954756,0.16663893,-0.019347336,0.26289344,0.27904484,0.091343254,0.022211669,-0.06770574,0.32292265,-0.008689576,-0.10015414,-0.025485244,0.21707489,-0.23368734,-0.36221457,-0.0074456474,-0.24905658,0.5124076,-0.12245332,0.25174245,0.23278487,-0.21105804,-0.24836805,0.09948645,0.17353347,0.25389224,-0.11051512,-0.026971554,-0.02346566,-0.44214648,-0.0023272512,-0.21140847,0.02397032,0.13424009,-0.11361372,-0.35463142,0.1081173,0.077165976,0.00087131944,0.0344205,0.3770985,0.25490302,-0.26767015,0.14057678,-0.2795131,-0.2528471,0.10280409,-0.37356183,-0.14436983,-0.49128744,-0.084383786,0.24619363,-0.076845795,0.36587346,-0.25132445,0.26530957,0.17669183,0.039539367,0.28904852,0.4276072,0.17607203,0.10961683,0.18704253,-0.24376357,0.13849984,-0.11026851,0.09725154,0.4410046,-0.5284668,-0.16278085,-0.3333945,0.3450682,0.168501,0.2476266,-0.39381096,0.25972039,-0.014398961,-0.18536133,-0.022896951,0.06586843,0.0362967,0.21752638,-0.1167722,0.2523865,-0.18358514,0.09771119,0.118360706,0.23889302,-0.24017905,-0.2527805,0.53799945,-0.49208847,-0.31937847,-0.12913604,0.079668336,0.39453998,0.03582715,-0.15655443,0.34410438,-0.20690434,0.21782047,0.15106821,0.29936597,-0.068119355,-0.49884087,0.0406747,0.04359158,0.085214615,0.08199631,0.49274215,0.43816963,0.12189539,-0.108480945,-0.18677692,-0.257501,-0.12068021,-0.38581228,0.041975535,0.17230125,0.35501197,-0.047766473,8.166383e-06
HK1,0.47106832,0.44883907,0.22615862,-0.2370178,0.50724095,-0.09900882,0.07942826,0.19023895,0.21625628,0.049561568,-0.1060535,-0.21068661,0.1365852,0.16709764,-0.08608126,-0.38528478,0.0065192883,-0.14128496,0.0017544695,-0.28793857,-0.179566,-0.08685958,-0.3469724,-0.3183402,-0.011324986,-0.035290357,0.25042474,-0.07881301,0.037829526,-0.24013807,0.113370925,-0.01093312,0.00034954818,0.18137327,-0.33333245,0.24060547,-0.09528208,-0.23416774,0.1745396,0.15040407,-0.22778155,-0.20754254,-0.13978511,0.33666027,-0.41981965,-0.19445792,0.21232755,0.006731071,-0.21279256,0.43704903,-0.21156321,0.1164945,0.24123444,0.18541396,0.29164034,0.00412528,0.23133653,-0.023555676,-0.37573612,-0.08875671,-0.2222274,-0.2541871,-0.29562292,-0.089780204,0.31034055,0.21989198,-0.07807437,-0.08515609,-0.0042871656,-0.42837107,0.30739298,0.47623304,-0.019787034,0.41429713,0.19771254,-0.23219503,0.12159784,-0.2054558,0.12925835,0.023801673,-0.025230452,-0.05191864,0.5601239,-0.25455007,-0.22446898,-0.2757712,-0.12731606,-0.06564176,-0.11768,0.037617527,0.22320136,-0.1455437,-0.11826512,0.0753641,-0.025659094,-0.13257983,0.46068886,-0.11127751,0.33291385,0.14976333,0.21139489,0.17479222,-0.048601616,-0.1792953,0.18317212,-0.27649882,0.7506944,0.31617075,-0.13714325,-0.004233574,0.0006107785,0.2694906,0.08827885,-0.044757076,0.0442658,0.06358712,0.44554314,-0.09767695,0.098217785,-0.14530411,0.094711065,0.25264394,-0.25081626,-0.34855655,0.096242756,0.12215275,-0.20068392,0.35484484
KDELR2,0.013882252,0.28333753,0.14723867,-0.11389626,0.094406836,-0.19593515,0.01856794,0.04947554,-0.26536962,0.14599618,0.21167612,0.36166397,0.030185029,-0.2613555,0.14260902,-0.08806639,0.12688716,-0.35605627,0.11974911,0.35117787,0.06517134,-0.27831012,-0.28717393,0.255829,-0.33405545,0.1313271,-0.4140444,-0.16895618,-0.17351688,-0.14573258,-0.06171735,0.21469204,-0.41664702,-0.6511331,-0.059222225,0.075319245,-0.021784851,0.09504975,0.24414596,-0.09049716,0.09259493,-0.21385197,0.19051452,-0.013239736,0.18397535,-0.15558197,-0.30398354,0.048178468,0.12607938,0.037310414,-0.18983261,0.12581554,0.21511915,-0.23052582,0.19383615,0.1312335,0.038007915,0.015255832,0.41072497,0.04686742,0.22875324,-0.18126048,0.014883315,-0.45545268,0.10162699,0.08311427,0.28024277,0.10631125,0.37246332,-0.039266862,0.34038028,0.12313677,0.028289722,0.13709411,0.02634064,0.22315726,0.02261794,0.12387931,0.61771584,0.14781986,0.14973567,-0.14880593,0.24248716,-0.5413469,-0.38370222,-0.09577187,-0.0038541008,-0.0595387,0.26526687,-0.15447085,-0.07981377,0.1874031,0.011227578,-0.27232802,-0.3606582,-0.33746338,0.17073892,-0.31237942,0.025584206,-0.00414926,0.49005795,0.0133284945,0.11103304,-0.042612474,0.7481044,-0.11033957,0.4944784,0.29065132,0.08191206,-0.15532602,0.33197117,-0.0106993215,-0.23376402,-0.025470734,0.26684618,-0.11804134,0.21225764,-0.2576386,-0.12939441,0.093953334,0.21777381,0.14638446,-0.36507368,-0.016011046,0.0861359,0.022168681,-0.19833317,-0.20861268
SKP1,0.018095095,-0.080168486,-0.3501077,0.47824147,0.09269713,0.034778167,0.14712693,-0.104284555,0.454705,0.10751431,-0.17097117,-0.2627396,-0.20029718,-0.12877794,0.3655962,0.05574881,-0.044496786,-0.05322258,-0.17039864,0.1461904,-0.033296097,-0.11975427,0.00093656185,0.08287167,-0.14427334,0.20461677,0.12659544,0.023091976,-0.8452472,-0.25066715,0.016877348,-0.03210707,-0.12782365,-0.17032698,-0.050810296,0.14534074,0.0868115,-0.15052885,0.22603603,-0.15523274,-0.006335269,0.08103832,0.26686564,0.19483308,0.0071086343,0.106515825,-0.16716747,-0.032167,-0.18197541,0.33104676,-0.12039365,0.16477454,-0.1634903,-0.14661898,0.011904858,0.03135398,0.022333281,-0.11623432,-0.096604854,0.26597956,-0.10891577,-0.17942418,0.19911471,-0.13180998,0.024713596,-0.015289614,-0.06626646,0.23077315,-0.34203893,-0.13291462,-0.44728675,0.004679374,-0.1786204,0.026096236,0.26816604,-0.22938657,0.2867061,0.102335595,0.22379883,0.0620849,0.24646913,0.25614372,0.19418786,0.062420152,0.17941636,-0.3663362,0.029362671,-0.24725242,0.11171099,0.09169201,-0.1420197,-0.13701999,0.11545159,-0.089131996,0.20177129,-0.010306128,0.09350057,-0.060120985,0.09986488,0.3850692,0.04499868,0.5102541,0.39967942,-0.18334979,-0.09066027,0.18125792,0.51931,-0.017797478,-0.20630181,-0.01808734,-0.3399499,0.035684593,-0.50385624,-0.123579346,-0.06571644,-0.09923814,-0.058461618,-0.016934788,0.014222513,0.23726839,0.026269501,0.1886728,-0.19307658,0.14097819,0.13765784,-0.18482459,0.0625281,-0.15065956
CAPN1,0.052444015,-0.2066161,0.3241445,0.29451486,0.13494718,4.8065784e-05,-0.52916634,0.024199454,-0.39104944,-0.22233774,0.6036917,-0.13535742,-0.4638619,0.19165601,0.6777932,0.19796753,0.34032282,0.6968062,-0.27294546,0.1151707,-0.3072386,0.08300571,0.099213034,-0.40567327,0.1386773,0.15808812,0.3777725,-0.47783267,-0.37264994,-0.39569512,0.0948916,0.3053351,-0.14060509,-0.26916462,-0.19420274,-0.07500383,-0.118654765,-0.52594787,0.15453717,0.1408222,0.42203447,-0.14698707,-0.14096794,0.10219882,0.22982754,-0.1426638,0.040516116,0.0066937106,-0.3564774,-0.33822224,-0.0138485115,0.060136735,0.20746511,-0.2488838,-0.0331343,-0.038596492,0.04119786,-0.216932,0.014811695,-0.25315097,0.0067319116,0.43745,0.016174903,-0.062032912,0.153829,-0.43792975,-0.062132817,0.23700452,-0.05314273,-0.1424014,-0.25381562,0.09976835,0.32900113,0.3148286,0.32641307,-0.16322656,-0.3417747,0.15330936,-0.0869066,0.18585083,0.26006585,-0.11036638,0.2665882,0.39432913,-0.1501538,-0.42870975,-0.13458513,0.17739914,-0.10466701,-0.16034554,0.09998544,0.020298865,0.00036773874,-0.064697444,-0.053828273,-0.33519727,0.4660905,-0.22588144,-0.15870275,-0.26163822,0.054386742,0.113243416,0.13531394,0.038697146,0.38385803,-0.39422688,0.32611355,-0.10788608,-0.112149194,0.003905526,-0.13901569,0.021664422,0.11221747,0.16862401,0.084611885,-0.16932699,-0.16868493,0.22775069,-0.016747842,-0.3174291,0.15777177,0.17729615,-0.45577404,-0.19506912,0.024468355,-0.20065229,0.011264751,-0.07019367
CALU,-0.04014073,-0.072165735,0.37228644,0.22922967,0.43727916,-0.18893063,-0.16786784,-0.0065546357,-0.22069293,0.24938953,-0.030843567,0.08047047,0.04782124,0.029450791,0.2550107,-0.0714227,0.024136012,-0.38345104,-0.08521275,-0.045624647,0.10075829,0.053617742,-0.1717709,0.38681883,0.01080281,0.5604521,-0.39156455,0.259011,-0.23960395,0.2638802,0.20244268,0.06447306,0.41129988,-0.23568991,-0.21147811,0.12505588,0.00022461134,-0.17953949,0.2223179,0.15441123,-0.09397133,0.1665848,-0.18475007,-0.09945491,-0.21168642,-0.0630749,0.20021679,0.103912644,-0.35397342,-0.18689772,-0.32793197,0.17655776,0.3726652,-0.288015,-0.21707249,-0.031126997,-0.030800246,-0.195751,0.29216108,0.24621965,-0.42216498,0.4178999,-0.24217007,0.11470351,0.06280855,0.009753204,-0.1499432,0.16001011,0.20488633,-0.06975097,0.4782939,-0.36304098,0.698691,0.25886834,-0.037926562,-0.5076797,0.06833769,-0.14373928,0.32633495,0.0706811,-0.09631064,0.35214877,0.09849491,0.45732582,-0.018445792,-0.03421726,-0.16555332,0.10803555,0.35493898,-0.08175166,-0.19529815,0.3718343,-0.03200229,-0.4118812,-0.19457698,0.11625159,0.17954725,-0.31474036,0.19220997,0.10962231,0.25357804,0.04141016,0.2135327,0.08599528,0.53809124,-0.4070282,0.36725917,0.23203813,-0.26527873,0.29150513,0.030924445,-0.34780952,-0.21664532,0.14831407,0.12412913,-0.012000842,0.25454664,-0.092733994,0.17162319,0.18805626,-0.13576871,-0.00415037,0.08205759,0.17851305,0.2540927,0.29572418,0.18444754,-0.15429765
CTSD,0.15520598,0.26912007,0.38875282,0.28532147,0.19228709,0.018358316,-0.02894182,0.030312583,0.040927853,0.20306475,0.18870692,0.2560484,-0.16363552,0.16677894,0.23362957,-0.006551085,0.31553346,-0.02954034,-0.10916107,-0.09748952,-0.141947,0.16477281,-0.36029485,-0.43032795,-0.075362355,0.37971637,0.046420954,-0.41581848,-0.5345679,-0.19385244,0.044910483,0.25720915,-0.1148546,-0.045831878,-0.33105987,-0.14889069,-0.17319313,-0.047618385,-0.06810667,0.10396568,-0.13673805,0.07209455,-0.38335276,-0.22371769,-0.06809045,-0.28957313,-0.12649325,-0.007001657,-0.685491,-0.14613256,-0.5512812,0.2709583,0.4072315,-0.14503458,0.35563782,-0.17315187,-0.4640356,0.19440876,-0.013617642,-0.14384969,0.1862495,0.45812118,0.22423382,0.2434026,0.42760673,-0.02563512,0.13977545,-0.16336906,0.10827795,-0.036536787,-0.12613809,0.041688208,0.029862663,0.32286286,0.018701635,0.07285691,-0.017550917,-0.15700407,0.13493016,-0.043054804,0.2126628,0.1033926,-0.03564675,0.13540606,0.22178142,-0.21523002,-0.14299843,0.3607995,-0.0077312207,-0.052825972,-0.17867331,0.31343547,-0.12780209,0.059389107,0.14095601,0.024585275,0.16098846,-0.37737173,0.30687693,-0.35534218,0.27741265,0.13074681,-0.069665916,-0.162004,0.29442555,-0.36225507,0.2825505,-0.07259706,-0.1591655,-0.2762448,-0.4427152,-0.010715519,-0.17318586,0.2292498,0.10536983,-0.045130733,0.39553416,-0.069946244,0.13968511,-0.317832,0.13504395,0.07638135,-0.42152685,0.25622913,0.3495868,0.58839154,-0.006268953,0.043377526
MAT2A,0.28327397,0.09061142,-0.5335969,0.12437225,0.7982349,-0.11352776,-0.07247969,0.48567995,-0.09009746,-0.31608203,0.018283809,0.11886213,-0.28187254,-0.06350053,0.52546155,-0.21529661,0.188675,0.24216735,0.124341145,-0.4710086,-0.35345307,0.21275064,-0.3836876,-0.07762374,-0.076323636,0.06420723,0.37370062,0.060056135,-0.41119346,-0.037175313,0.059376895,0.16955401,-0.12202071,-0.0047959066,-0.05699957,0.25888744,0.4032317,-0.1988315,0.2313433,-0.14572193,0.123686105,-0.26060063,0.08794684,-0.08559579,-0.3409268,-0.46621186,-0.3904871,-0.32786053,-0.56116617,0.38604063,-0.041820306,-0.15334895,-0.08801347,0.37202638,0.009778576,0.07071947,-0.37454963,-0.20298569,0.150028,0.31860647,0.0036323497,-0.12661001,-0.26666898,0.1726097,0.4595199,-0.17114642,-0.09759428,0.07614656,0.20047891,-0.08026258,0.26000938,0.042115476,0.011957515,-0.20196334,-0.37856606,0.17412218,-0.38796404,-0.12626787,0.34709042,-0.3070069,0.46963567,0.221928,0.22469334,0.08083513,-0.36789814,-0.0054578222,-0.23843475,-0.26351476,-0.20616978,0.2051725,-0.13375455,0.2098352,-0.072821565,0.040129382,0.17205207,-0.10520364,0.3618239,-0.041305963,-0.079871476,-0.28802383,-0.21554887,0.0106671825,-0.26669204,-0.10445327,0.06541236,-0.0110089965,0.14046904,0.6600126,0.007801663,0.24894305,0.24144842,0.0015449823,0.14764139,-0.3408295,0.007193052,0.41066378,-0.015458453,-0.26300967,0.1819553,-0.15652932,-0.18685152,0.36428896,-0.5050161,-0.23342103,-0.43766588,0.18169017,0.26963162,-0.2921534
STMN1,-0.15746361,0.012725766,0.31564775,-0.14215511,0.26054165,-0.10332221,0.0688174,0.29559013,0.40125751,-0.28848797,0.3906424,0.16845308,0.028738841,0.22855355,0.5939396,0.15045097,-0.24112989,0.00033424242,-0.14840473,0.23457319,-0.5201246,0.100680046,-0.23854771,-0.25403124,-0.41923937,-0.12817816,0.6434048,0.2974986,-0.2406924,-0.044777438,-0.45501372,-0.18610343,-0.17480686,-0.6093228,0.01812533,-0.26509446,0.20616083,-0.31605893,0.22226931,-0.18841787,0.30998072,-0.25666413,-0.22114371,0.09481701,0.31101215,-0.022020984,0.009909517,0.19173884,-0.31925076,0.20014627,0.318341,-0.30168268,0.35496038,-0.36130935,-0.4995961,-0.41026145,0.37727368,0.3062466,-0.2059445,0.16641252,0.15345998,0.10818555,0.025425212,-0.25537902,-0.024118187,0.07600207,0.36224636,0.06403513,-0.19173647,-0.2135671,0.062440693,-0.06818088,-0.035744905,0.3010964,-0.26537907,-0.21037059,0.13038936,0.31659868,0.0014482187,0.18761666,0.20915052,-0.22928295,-0.16038677,0.15160227,-0.036879413,-0.5371181,-0.28324053,-0.4242569,0.24064355,0.28913358,-0.38860875,-0.04003367,-0.040906858,-0.40370998,-0.3933561,0.32018542,-0.12984061,-0.039181046,0.0018657192,0.32194847,0.0948137,-0.086275026,0.27096698,-0.5510898,0.013837887,-0.12647535,-0.06270831,0.25271392,0.189914,0.07192594,-0.026443688,-0.12033275,-0.13958594,-0.41737503,0.3679059,-0.044760667,-0.0021085283,0.09012036,-0.17571607,0.0014557815,-0.14903171,0.18324298,-0.48111373,-0.056254417,-0.13387716,0.256726,0.008410875,0.5466778
ECH1,0.06784519,-0.11600892,0.18468492,-0.44716957,0.15916325,0.025119668,-0.12849097,-0.012202438,0.30075273,0.46313924,0.070385635,0.07704557,-0.2547448,0.20294118,-0.030922212,-0.027216835,0.2009754,0.2142612,-0.08469027,0.26806477,0.1619261,-0.51384115,-0.33513343,0.19253226,0.18062392,0.006174346,0.12367442,-0.22426105,-0.14181878,-0.04892206,-0.1549249,0.1550461,-0.0752406,0.19718558,-0.3130081,0.58860624,0.25220153,-0.058585443,0.13724397,-0.104436435,0.10488131,-0.36525533,-0.33003607,0.32969648,0.13009112,0.18724887,-0.08876608,0.15865773,0.17031261,0.18355873,-0.38351074,0.4977657,-0.05203455,0.15385112,0.22232528,0.124675415,-0.36708856,0.12816831,-0.17881988,0.16148913,-0.7515357,-0.25626895,0.020658528,-0.35617748,-0.06946558,-0.007931746,-0.6360001,-0.08467836,0.47736153,0.006857958,0.1015726,0.29202953,0.066470996,0.4403714,-0.08804201,-0.17790686,0.13345507,0.1594683,0.21125916,0.21182087,0.23933263,0.018471614,0.51014584,0.4961081,0.26715145,-0.10262872,-0.68136716,-0.012017083,-0.4041071,-0.07159675,-0.051345106,0.34106323,0.24961261,0.48375136,0.18064727,0.15063828,-0.043325864,-0.44005892,0.4225783,0.06855149,0.3337376,0.40002683,0.22837418,-0.3247846,0.1726067,0.07926176,0.1915014,0.27824324,-0.12932597,0.2421483,-0.24583556,0.24887535,-0.00030701654,-0.037157446,-0.11053133,0.22192508,0.16251446,-0.20953368,0.26960188,-0.110527165,0.07469033,0.051272605,-0.34764248,-0.2481282,-0.16070811,0.12584043,0.26145452,0.02060809
IQGAP1,0.07918067,-0.2871795,0.06672761,0.20530108,0.38283148,-0.029762011,0.20604922,-0.016207185,-0.11559254,-0.22864725,0.3797689,-0.15971614,-0.1977343,0.49481383,-0.012750932,0.040394172,0.11191743,0.25171107,0.16480494,0.27076614,-0.28433007,-0.5708076,-0.16708799,-0.12209784,0.2652576,-0.080775976,0.12445993,0.24700718,-0.49396473,0.19353308,0.07476255,0.13302952,-0.0949577,-0.39495447,0.17632692,-0.019700954,0.22553372,-0.11629194,0.16271162,0.113917455,0.08307662,-0.25882575,0.121608056,0.27464372,0.12354817,-0.36838064,0.25464568,-0.0104024075,-0.4673015,0.23946664,0.110211216,-0.10577035,-0.09212249,-0.38292953,-0.109514914,-0.569813,0.11080831,-0.15854825,0.16651326,-0.06530196,0.28200057,0.16542315,0.099902496,-0.022425516,0.23768331,-0.11576177,0.18333341,-0.045613352,0.42233637,-0.19310968,-0.18405145,0.23473902,0.27734268,0.44105393,-0.023152607,-0.0561677,0.29418465,0.075053275,-0.0058119358,-0.13161407,-0.45947167,0.075411975,0.32495847,-0.02899527,0.20847836,-0.3217986,-0.10442963,-0.026117861,0.065992124,0.31416705,0.08638168,0.012367787,-0.27445617,-0.24987236,0.18021996,0.0142845465,0.060702767,-0.16956232,0.16093579,0.31938064,0.32619986,-0.24142657,0.18179506,0.06796889,0.32366252,-0.18519437,0.5242233,0.29246166,-0.48820812,0.09392288,-0.023070633,-0.2039567,-0.13970411,0.09755587,0.42353946,-0.15314431,-0.37764254,0.12053351,-0.03255693,-0.26289248,0.23587322,0.24254075,0.157691,0.026435327,0.018500537,0.092301525,0.07859024,-0.045123268
HSPA1A,0.31671274,0.10310245,0.05236873,0.16547206,-0.042740673,-0.18704897,-0.15767954,-0.15310507,0.03738465,-0.47237882,0.38465208,0.36173686,0.26626673,0.054309014,0.37437424,0.059671365,0.06793973,0.19500159,0.124930255,0.109785706,-0.26022214,-0.027654717,-0.4462903,0.043904398,0.0061861603,0.24606913,-0.008387744,0.16806817,-0.24436213,-0.45954272,-0.3698552,0.3771362,-0.111974485,0.09368061,-0.25829595,0.36086452,-0.34236124,-0.036219805,0.23523465,0.17500293,-0.1261797,0.08698689,-0.36141866,-0.4249862,-0.090891674,-0.007289864,0.12453879,0.028726336,-0.02462502,0.26845425,-0.45647895,-0.17165214,0.09762896,0.083665125,0.042117946,0.042604946,-0.27525344,0.22842184,-0.106773466,0.095754854,0.18674116,-0.118417606,-0.19984771,-0.3654384,0.22467577,0.18813118,-0.18950692,0.2242391,-0.23347065,-0.28422704,-0.31390315,-0.16488269,0.25456703,0.124566115,-0.12751658,-0.1045475,0.015724791,0.097654566,0.031087192,0.24344914,-0.041498493,0.28983998,0.020174563,0.073654845,-0.09198571,-0.18571575,-0.5255881,-0.1649634,0.19802006,-0.061282977,-0.027549624,-0.12587696,-0.0425168,-0.011066375,-0.081009015,-0.02281665,-0.09844933,0.22026095,0.19300371,-0.12148525,0.21095902,0.13261004,0.2476958,-0.57137215,0.33738837,-0.28652322,0.086023696,0.28405553,0.15337071,-0.35531786,0.15947229,0.21744432,-0.19298455,-0.23268668,0.30590722,-0.004740587,-0.02281003,-0.18861952,0.05904773,0.034912877,0.024342068,-0.14044932,0.3317237,-0.24662767,0.147582,-0.09733498,0.013969856,-0.16214113
HSPD1,0.21822919,0.35846922,-0.2129397,0.06546545,0.19974719,-0.016410148,-0.037892573,0.22160287,0.05082196,-0.0041447715,0.22768138,0.09691631,0.37399644,0.23365639,0.31926385,-0.010846902,-0.23781376,-0.09526485,0.20528598,0.012642957,-0.1684692,-0.22956257,-0.32797152,0.17012489,-0.080717444,0.26945028,-0.13073508,0.08095942,-0.43911552,-0.5474604,0.17135833,0.21886356,-0.076626584,0.060473543,-0.26718625,0.58386815,-0.094504416,-0.42141154,-0.12768428,0.40127105,0.04736562,0.2968042,-0.14411844,-0.23978394,-0.34402245,-0.25776085,0.25018662,0.09412747,-0.25288084,0.42021748,-0.19526109,0.018544033,0.28251892,0.16202244,0.078245394,-0.142558,-0.3191835,-0.13370796,-0.012441411,0.13670196,0.0056105326,-0.40960556,-0.12906995,-0.07742608,0.35166973,0.27000013,-0.15604244,0.13712397,-0.18659995,-0.23645794,-0.22888996,-0.1278993,0.23227654,-0.13073054,-0.25001422,-0.002188707,0.29909468,0.06493199,0.29053319,0.34957287,0.1567481,0.018227357,-0.14274664,0.06217487,-0.13929977,-0.097031906,-0.2849831,-0.007557129,0.12925844,-0.208888,0.22797531,0.13841908,-0.039995898,-0.01706387,-0.060553987,0.13020746,0.40225488,0.022164473,0.2981053,0.2119279,0.24446848,0.34705085,-0.12499226,-0.29370064,0.26578426,-0.17538302,0.021009993,0.23773809,0.14890198,0.03968765,0.27377257,0.10262616,0.07665081,-0.13948809,0.2835953,0.2612616,0.03221115,0.016674945,0.07818221,0.159577,-0.346781,0.014985524,0.07428832,0.0015950045,-0.33796653,-0.20718971,-0.018267116,-0.037526693
CIRBP,0.38048834,-0.43730268,-0.08911077,0.23200278,0.21865326,-0.34349307,-0.042524017,-0.06702547,0.255179,-0.38773176,0.12487506,-0.16844869,0.35716513,-0.29509145,-0.28826445,0.311226,-0.14473362,-0.48813885,0.03784225,-0.17718004,-0.23530026,-0.031637944,0.116360284,-0.0659559,0.16552807,0.27939707,0.41607678,0.2130348,-0.07903439,-0.3705527,-0.17226933,0.23557994,0.17971055,0.1469832,-0.6932814,0.45469052,-0.06289772,0.27925158,0.14401318,-0.0006083406,0.7184502,0.34777567,-0.53616756,0.21649131,-0.11950962,0.24257755,-0.66299504,-0.28530836,-0.53506374,-0.18295766,-0.4143424,0.08764806,0.10674281,0.31718415,-0.32882664,-0.40741575,-0.05498558,0.16794984,0.3024384,0.2033381,-0.37072167,0.0513641,0.3372467,0.05367707,0.021810452,0.023965664,0.033038262,0.5920637,0.17431997,-0.0724075,0.08300552,-0.33143416,-0.16641663,0.263868,0.06444472,0.21414302,0.2258296,0.17677654,-0.022730669,0.1294733,-0.5129103,0.36876076,0.25081307,0.106064215,-0.43150693,-0.27822006,0.34461874,-0.16502377,0.2166263,0.38228738,-0.24117897,0.10290296,0.44875473,0.17004411,0.12298329,-0.122799344,0.20986432,0.12081378,0.036975246,0.3891,0.3525188,0.24186698,-0.2808548,-0.3467753,0.43422195,0.16817036,0.1215557,0.31869832,0.28544906,-0.19727439,0.24794495,0.1190673,0.35649127,0.07811701,0.13812989,-0.13158631,-0.084590495,-0.22721596,0.17379819,-0.5727457,-0.19404253,0.2114613,0.4367501,-0.18794882,0.30720344,-0.23635362,0.7206207,-0.03317264
PSME1,-0.2585543,-0.37962145,-0.0052746446,0.46626797,0.16508748,-0.045931138,0.4009612,0.026267005,0.5134446,0.08931983,-0.14120713,0.06838859,-0.027911205,0.112966575,0.06836511,-0.14657474,0.05959058,0.22155137,-0.1386801,0.102678716,0.061150387,-0.06242207,-0.13239577,0.07308612,-0.07983023,0.2732026,0.026091846,-0.23322882,-0.5516502,-0.41718072,0.02111068,-0.11791175,-0.25316828,-0.12849556,0.11992221,0.266588,0.02360685,-0.24676208,0.13533293,-0.08223481,0.00076765945,-0.062083364,0.13079174,-0.09866072,-0.15102552,0.11188807,0.013561013,0.25543374,-0.10186181,0.21899103,0.011434718,0.36925113,-0.009454753,-0.19060104,0.12562932,0.034721877,0.23407227,-0.01232629,0.10965328,0.31138468,0.15627462,0.2292152,0.2583136,-0.31239513,0.16336858,0.13856126,-0.27006012,-0.21573418,-0.29759133,-0.31928584,-0.014200291,0.19564371,-0.026845476,-0.008248693,0.24051571,-0.3042908,0.076214686,-0.22061013,0.37501195,0.15913227,-0.074532524,0.13079047,0.21733221,-0.027005743,0.16019611,-0.29805154,0.07084061,-0.060731906,-0.04409258,0.15899408,-0.078028925,0.054410953,0.28458542,-0.18071507,0.1255242,0.013936124,0.051636875,0.25582469,0.019484065,0.17801414,0.14522691,0.34980395,0.20989645,-0.27031028,0.4212713,0.13383043,-0.015580294,0.23804915,0.22344226,0.12495387,-0.23187749,0.05475377,-0.5577751,-0.3407931,0.08258487,-0.17690822,-0.09753482,-0.25845036,-0.25539532,-0.062026102,-0.23106344,0.062086534,-0.2271399,0.1317501,0.07656325,-0.16147502,0.38857743,-0.17141075
PAFAH1B1,-0.2384723,0.11869111,0.3213924,0.06636996,-0.20595205,-0.035647508,0.33439502,-0.11615446,0.34140268,-0.1246587,0.17217405,0.09169854,0.16119587,0.020680536,-0.06427187,0.094700485,0.025905197,-0.08338818,0.0071080816,0.3526254,0.021296792,-0.060160324,-0.42965436,-0.095542654,-0.28021654,-0.14262292,0.21656823,-0.033102684,-0.5435521,-0.08907878,-0.0507786,0.28571376,0.3398244,-0.30382526,-0.009817243,-0.013654177,0.25193352,-0.046485238,0.5229778,0.106732644,0.39880198,0.08119627,-0.05803306,-0.108651675,-0.0045613567,-0.12637763,-0.260251,0.08153531,-0.3957759,0.35969463,-0.28461027,0.28854185,0.12913166,-0.071632005,-0.13737544,0.036666434,0.34806964,0.14926687,-0.26627025,0.23747803,-0.0861946,-0.010745802,0.13887517,-0.11549426,0.013807479,-0.40274718,0.3871993,0.030222777,0.71822286,-0.3243377,0.005312327,-0.022269556,-0.029806001,0.2275833,0.35355806,-0.28825605,-0.31130525,0.19523653,0.19475366,0.09498163,-0.12689428,-0.18933171,0.38805923,0.001953907,-0.13589211,0.11300186,-0.04031319,-0.09297745,0.22418477,-0.115225695,0.046339944,0.15754938,0.19117942,-0.5733781,-0.059290122,-0.12847957,-0.15043867,0.14011165,0.13434835,0.3368146,0.60910827,0.29804686,-0.2133243,-0.20290561,-0.03623262,0.28430042,-0.07854954,0.4236518,0.054341555,-0.15220073,0.05570068,0.15634565,0.026561497,0.009695963,0.19293499,-0.24575776,-0.09087145,0.4118355,-0.54727376,0.21196172,0.104424186,0.03432555,-0.2605708,0.061954558,0.013896327,-0.013132158,0.2715331,-0.43361288
HYOU1,0.20714913,-0.084703304,-0.08516076,-0.05631874,0.02360107,0.067825936,-0.33796206,0.13308328,-0.28789896,-0.14943258,0.37233877,0.26375258,0.5406792,0.021611735,0.46841103,-0.42943436,-0.2107901,-0.23252343,0.35106722,-0.12754129,-0.24172159,-0.11461739,-0.34460434,0.38094875,0.03303082,0.42597,-0.17002293,0.011992174,-0.2450528,-0.019707607,0.051239263,0.4843874,-0.059661392,-0.18772453,-0.18516956,0.37847784,-0.18286377,0.08363654,0.045450408,-0.18154778,-0.0058049546,-0.089126736,0.0031745604,-0.30314112,-0.08348443,-0.31400353,-0.1617942,0.04812936,0.053922396,0.20409769,-0.3270098,-0.099004276,0.19656883,-0.19321004,0.19558409,-0.11590803,0.008460292,0.2308952,0.17408842,0.4231852,0.35660562,-0.28577334,-0.06315728,0.088959344,0.44559938,0.6156446,0.16052888,-0.06244781,-0.45035204,-0.22746205,0.07733094,0.08429663,0.35240903,0.39263344,-0.36765242,0.025374675,0.026762994,-0.058558714,0.60767084,0.32408014,0.14357078,-0.1318986,-0.12583046,-0.2561533,0.12898812,0.006731241,0.12550597,-0.20285182,0.12180917,-0.4027002,0.22905146,0.19727662,0.14557545,-0.24586451,-0.05672855,-0.108107716,-0.058243368,-0.22233954,0.12789395,-0.29532495,0.19695371,0.5187681,0.011487096,-0.2788212,0.6224397,0.021603769,0.47829497,0.3780358,0.028154291,-0.19105364,0.5032776,0.12440404,-0.18270436,-0.044256035,0.021212641,0.28151757,0.039429836,-0.08836068,0.0019709654,0.35442415,-0.20671098,-0.20416062,-0.063150965,-0.22561228,0.29001504,-0.15137465,-0.29440373,-0.15091377
PSMD2,-0.20065068,-0.3919393,-0.12888493,0.592396,0.13938794,-0.2921548,0.17837924,0.09928954,0.28509337,0.15513678,-0.15898474,0.06545434,0.20121019,0.097248614,0.19161308,-0.29049072,0.19937155,0.18370917,-0.12120037,0.114019856,-0.10469878,-0.082285784,-0.14117567,0.24391346,-0.10400895,0.43850443,-0.018013025,-0.0638265,-0.58260053,-0.426108,-0.19498266,-0.028483536,-0.11855606,-0.062340703,-0.032350853,-0.059343968,-0.049448594,-0.16493677,0.0048331064,-0.14189246,0.03448338,0.15464093,0.050517395,-0.11996648,-0.1397483,-0.09886063,0.18707785,0.13747433,-0.164194,0.21140294,-0.035284113,0.043272052,-0.18107358,0.13375118,0.16596866,0.131882,0.2625896,0.11051022,0.093045935,0.37290666,-0.0076105264,-0.0008042669,0.21221757,-0.20633654,0.091057815,-0.026910655,-0.26614526,-0.08589449,-0.25839895,-0.16692007,0.10716386,0.003622617,-0.056613427,-0.112360515,-0.061951764,-0.3146614,0.05586353,-0.34832567,0.17752744,0.021889659,-0.18605898,0.107001185,0.22774614,-0.015585386,0.015125917,-0.2538205,0.03354797,-0.046034884,-0.111939244,-0.07608802,-0.030009367,-0.0025669085,0.16461197,0.040779516,-0.118909016,-0.26577765,-0.028211486,0.091733664,0.023056734,-0.0031774282,0.095730044,0.32735893,-0.100576535,-0.47118714,0.14660919,0.0040331525,0.118997045,0.23096983,0.0702908,-0.14766754,0.042971667,0.015654331,-0.3949147,-0.4157338,0.045616236,-0.18415101,-0.08867091,-0.27700353,-0.27365723,-0.027504193,-0.089359164,0.0397872,-0.4118982,0.3472699,-0.14794308,-0.23389673,0.3459063,-0.2506628
EPRS,0.0072137318,-0.0016984626,-0.008541211,-0.05825734,0.34736025,0.043428984,-0.10019626,0.13569579,-0.16933268,-0.044872247,0.10507258,-0.34955692,0.1190952,0.033278044,0.4835372,0.26386526,-0.09239466,-0.10434786,0.22024179,-0.14241996,-0.21690278,0.007866957,-0.4435194,0.20387514,0.09797398,0.020171959,-0.0841135,0.059385855,-0.3489507,-0.60192025,-0.17329326,-0.09342829,-0.36554414,0.30549932,0.013376145,0.36021042,-0.048357837,0.08827884,-0.21779297,-0.0022982152,0.25679302,-0.021910517,-0.05566054,-0.038411498,0.026137333,-0.17709276,0.3777946,-0.08293418,-0.17728435,-0.10869302,-0.36256552,0.017186694,0.30771333,0.23076467,-0.053569082,0.12508903,-0.026793677,0.17512204,-0.10619428,0.43525085,-0.0781317,-0.452623,-0.2600269,-0.11474827,0.33359584,-0.0032557321,-0.30750474,-0.10458142,-0.13365291,-0.15852042,0.2525162,-0.13353772,-0.11051333,0.01449193,-0.44443366,-0.066278554,0.03010853,-0.16279493,0.46868005,-0.12644194,0.10988448,0.16623384,0.08824828,0.32583955,-0.12375099,-0.09846922,-0.29897198,0.16111067,-0.034685515,-0.29016775,0.12725958,-0.02514022,-0.14183022,0.08674316,-0.03836637,-0.22720969,0.09443636,-0.17591983,-0.19487923,-0.08619969,0.11806521,-0.0013477133,-0.15470763,-0.14783749,0.16360742,-0.018943997,0.2986183,0.48758104,0.09035266,-0.18692456,0.36746773,-0.012070972,0.14042912,-0.037218172,-0.04366498,0.06385581,-0.100119,-0.24683155,0.041824616,-0.10834146,0.13306592,-0.0576965,-0.24181826,0.1740652,-0.32909033,0.034920875,0.059898857,-0.27277705
PSMD4,-0.16765933,-0.35181183,-0.0576309,0.5632748,0.17409003,-0.097667396,0.117399246,0.07748455,0.17193076,0.29937756,-0.21191378,0.062352307,0.1708672,0.13925956,0.110362075,-0.25425756,0.11342364,0.20325002,-0.20816277,0.12704323,-0.04320189,0.003462222,-0.11518534,0.11847808,-0.050549943,0.36216506,0.26327646,-0.087956734,-0.63251895,-0.40198058,-0.23710307,0.0019177287,-0.26542446,-0.12062191,0.08600012,-0.05083218,0.060002696,-0.12733021,0.0320191,-0.29017872,-0.047749437,0.09967264,0.092409454,-0.042778518,-0.16911174,-0.07698174,0.20468482,0.1566004,-0.12314906,0.21667026,-0.060909368,0.14234051,-0.13265747,0.08685512,-0.0027424726,0.1586821,0.30217838,0.18247537,0.06815095,0.24888247,-0.056297928,0.077974446,0.05609384,-0.23903294,0.14439549,0.013974713,-0.20429574,0.10888499,-0.27417096,-0.23813576,0.06344345,0.12895384,-0.04118836,-0.18391684,-0.00950579,-0.23930597,0.026628949,-0.38761628,0.2043849,0.17052305,-0.060849182,0.08097417,0.07939419,-0.11659169,0.00757773,-0.24359357,0.042238083,-0.055156227,-0.076700866,0.06045911,0.0055824094,-0.13227297,0.16371702,-0.038840327,-0.11716474,-0.32218334,0.10485528,0.032864302,0.09962644,0.1279343,0.104649454,0.36347893,0.21302095,-0.42144793,0.28728408,0.18144946,0.15700267,0.2582831,-0.05021244,-0.0319045,-0.16728163,0.02846943,-0.46342444,-0.32279053,-0.11553645,-0.29490587,-0.049060427,-0.1576755,-0.21174113,-0.10857836,-0.15489371,0.084727615,-0.35750246,0.23801392,-0.036631055,-0.14692749,0.3407492,-0.2305508
PGAM1,0.36396113,-0.08716129,0.108561404,-0.40565228,0.56466514,0.14482202,0.15187809,0.52019566,-0.040482786,0.38873067,0.23137052,-0.12923099,0.076684065,0.30992615,0.16034377,-0.16578372,0.07231843,-0.14834893,0.12565193,-0.29061612,-0.21984343,0.062393405,-0.52465314,-0.33769915,-0.21399897,0.081480905,0.17142932,-0.15756951,-0.09224444,-0.10161453,0.031857055,-0.15489791,0.040277854,-0.036564715,-0.51946306,0.20980686,0.06673083,-0.27991602,0.123957194,0.07105523,-0.30374682,0.05711222,-0.18816906,0.2289612,-0.28459138,-0.55541295,0.21493398,-0.051224604,-0.23765707,0.4887305,0.08421818,-0.6335323,0.17534567,0.3164767,0.4395083,-0.06716404,0.061850443,-0.19953613,-0.046425257,-0.037540264,-0.064548954,-0.23144217,-0.07270756,-0.19439185,0.2992991,0.3820823,-0.29421392,-0.0128473295,-0.2532435,-0.23895346,0.48810884,0.31217113,-0.1685411,0.4694222,0.08695065,-0.116276465,0.32182783,-0.3552376,0.16090223,0.17008626,-0.08250992,0.13088016,0.36773533,-0.3817874,-0.12241245,-0.50617164,-0.6498959,-0.1672025,0.030670993,0.08555583,0.00080609135,-0.03797165,-0.22460295,0.32374737,-0.434383,0.27412996,0.39146468,-0.25094342,0.30394322,0.24328671,0.25580695,0.28222996,-0.17428264,-0.31546077,0.2545799,-0.20140989,0.13588156,0.3422782,-0.25234386,0.068220444,0.3229996,-0.047447324,0.13119042,-0.3457754,-0.32907805,-0.18565917,0.3336017,0.22647212,-0.03322145,-0.032751597,0.2343824,0.18988515,-0.2536268,-0.3926202,0.060702495,0.4428217,0.21255228,-0.04575525
STAT1,-0.23351327,-0.1026145,-0.07479923,0.3057651,0.2781751,-0.0065574856,0.17979088,-0.21165052,-0.009524834,-0.12638834,0.16496837,-0.33038613,-0.009916332,-0.10110105,0.17051724,0.20929147,-0.15082698,-3.1377305e-05,-0.058890816,-0.31426468,-0.14723286,0.00068173406,-0.33346832,-0.11902088,-0.009844896,0.4451214,-0.3276328,0.12416627,-0.26520148,-0.3924048,0.056928203,0.14029744,-0.07776273,0.09647284,-0.21599226,0.211098,0.09043736,-0.44424018,0.031926036,0.2491187,-0.1545674,-0.091425925,0.2473033,0.16809276,0.13374932,-0.075417034,-0.3457242,0.0030843935,-0.22323745,0.10065253,-0.18946452,0.23629403,-0.09277212,0.17070562,0.24638504,-0.19797973,0.058787122,0.18068527,0.15950988,0.14254527,-0.13754109,0.22216345,0.10049852,-0.18887833,0.18866879,0.031384517,-0.30730706,0.1574183,-0.25803202,-0.22606465,-0.25986844,0.11296063,0.09999243,0.06338332,-0.026709339,-0.1645984,-0.031444374,0.19715865,0.0054365676,-0.06613715,0.09522834,0.23614526,0.11259209,0.03827875,0.1733261,-0.08131419,-0.123414375,0.03243776,0.013916611,0.008081812,-0.32140887,0.17712113,0.2557767,-0.13899803,-0.26567316,-0.027273009,0.2933445,0.2684865,-0.19488017,0.28936142,0.033386018,-0.11130162,0.31255192,-0.17383972,0.023655787,0.055294193,0.14758357,0.097382426,0.0037329837,0.33496326,-0.4679108,-0.16145547,-0.11191323,0.086666115,0.5624916,-0.08707779,-0.05723825,0.1571173,0.14584553,-0.22363807,-0.15631562,0.22658618,0.08115956,-0.11840081,0.4222676,0.027747532,0.06921889,0.38513997
FKBP4,-0.20819658,0.043188613,-0.19564122,0.056749374,-0.18502955,0.078300506,-0.2011101,0.08040859,0.37657353,0.014451941,0.004276004,0.3057696,0.07084682,0.06815868,0.43675697,0.18641682,-0.08669802,0.2195894,0.07735993,0.106116176,0.111304745,-0.16367519,-0.8284211,0.1549672,-0.3011912,0.18975034,-0.03416815,0.008696443,-0.42009887,-0.0622002,0.04397885,0.1883823,-0.5135162,-0.11490571,-0.21894856,0.19353378,0.029311847,0.07701007,0.31006348,0.0984417,-0.013048436,0.124881044,-0.9765123,-0.018782841,-0.02007939,0.21762064,0.00756166,-0.06004726,0.10918689,0.50130785,-0.5061121,0.12325331,0.26273754,0.056352627,-0.14124712,0.052268825,-0.47806066,0.07346085,-0.03708425,0.15640993,0.10788776,-0.17329487,-0.4385487,-0.3315278,-0.094391,0.3737442,-0.2758409,0.14423347,0.044737056,0.18947898,-0.2241845,-0.112356946,0.07293961,-0.07348346,-0.19704708,0.13932271,0.05873335,0.3533041,-0.06514239,0.31881174,0.054747887,0.044516947,-0.105061725,-0.61189413,-0.08301889,0.13835463,-0.5141564,-0.11311562,0.093813755,0.024943257,0.16689698,-0.1638138,0.18550947,-0.31199566,-0.38895276,-0.16335395,0.21668646,-0.26268473,0.40929168,0.27760726,0.45831063,-0.16637623,-0.062322233,-0.26343092,0.39164904,-0.014918585,0.19810586,0.4385318,-0.08381475,0.22288424,-0.020409752,0.028604724,-0.10682507,0.15884729,0.11374351,-0.38702682,-0.21388747,0.44795892,0.1029334,-0.18566802,0.6360515,0.13906357,0.006083633,0.20072542,0.3370149,0.18328515,0.14165658,-0.2509873
KTN1,-0.0011536208,-0.007963238,0.34568778,0.35081917,0.18862599,-0.27136108,-0.26898885,0.26260638,-0.18448353,0.17069109,0.5875218,0.042357057,0.23642087,0.17528568,-0.198369,-0.19395734,0.15787019,-0.23228131,-0.33656085,-0.16718417,0.20041591,0.032515362,-0.22355571,0.085811146,-0.16037314,0.6515086,-0.24775097,-0.030503519,-0.20550774,0.106214486,0.16946185,0.0762822,0.31110817,-0.24744135,-0.012625183,0.32463834,0.0712063,-0.22573027,0.31728187,0.21789448,-0.2890829,-0.09158406,-0.26537994,0.4377744,0.17083453,-0.08447181,0.33184284,-0.28791562,-0.11558084,-0.10849696,-0.5099989,0.04967809,0.055103187,-0.28999802,-0.12480745,-0.056935314,-0.06946197,-0.28918597,0.27474526,0.35299915,-0.4299195,0.30636603,-0.14929086,-0.23593596,-0.04577025,0.019105459,0.1666214,0.14612068,0.44757956,-0.20024517,0.35150674,-0.18438189,0.122560576,-0.073631674,-0.24496433,-0.21992998,0.32418388,0.065451145,0.36678267,0.03640102,0.48729786,0.23869307,0.024667611,0.078198515,-0.1319314,0.06662373,-0.0142431725,0.24229743,0.108856164,-0.08159884,-0.43774983,0.43009102,-0.15349784,-0.122179635,-0.42590106,0.3212906,0.36070308,-0.30637828,-0.1420682,0.11025603,0.20485313,-0.061666973,0.27294067,-0.0008491935,0.28597853,-0.26920447,0.41696987,0.11691476,-0.12639683,-0.058550302,0.5132356,-0.33113158,-0.21507752,-0.121718064,0.15442324,-0.16711563,0.2169606,-0.14885484,0.14413187,0.4355095,0.11608468,0.17470646,-0.11224913,0.28153476,-0.11042316,0.16567358,0.119397305,-0.26881257
TMED10,-0.20061018,0.23811722,0.17489426,0.029383454,-0.16542907,-0.16193064,-0.048876274,0.14622648,-0.017751906,-0.08374359,-0.012558314,0.18328276,0.13444486,-0.23060606,0.32400128,0.114067405,0.007937944,-0.050475515,0.10455924,0.198522,-0.06183289,-0.04115804,-0.3427572,0.066585585,0.06256271,0.31542677,-0.09090183,-0.13370894,-0.09025126,-0.16657329,-0.14246236,0.36726636,-0.3488159,-0.5009354,-0.0028408563,0.17247482,0.082022995,0.16692683,0.12879597,-0.056345176,0.17958124,-0.25129673,0.13011263,-0.12630086,-0.025584163,0.050331518,-0.27967334,0.19665349,-0.2391922,-0.084374756,-0.33843973,0.1481395,0.24404502,-0.38397044,-0.15263343,0.029260242,0.22658545,0.20100804,0.43543828,0.33737865,0.26088092,-0.35029477,-0.13636969,-0.22250721,0.056179706,0.065190144,1.7320224e-05,0.3155938,0.2518551,0.17053063,0.2497066,0.07764795,0.24109001,0.37448314,-0.07031442,0.19967526,-0.05672835,0.22539127,0.42504948,0.23726054,0.51276845,-0.26532328,0.24957682,-0.5607654,-0.5463654,0.17272587,0.14047846,-0.083081216,-0.03198761,0.16534656,-0.011852234,0.26692662,0.24175008,-0.28421298,-0.24017459,0.026339697,0.25992775,-0.08518208,0.22835416,-0.13685185,0.3757105,0.14704812,-0.061014254,0.19486976,0.5490304,0.07585461,0.69244987,0.4520636,0.09255067,-0.06804535,0.1762775,0.16404416,-0.19682771,0.21469726,0.15186498,-0.15391494,0.33711836,-0.24094497,-0.46840084,0.062686935,0.21448466,0.1108571,-0.4373907,0.19666919,-0.063244484,0.31510717,-0.03674913,-0.23094311
ALDOA,0.28916764,0.20478417,-0.1828837,-0.21201774,0.17550983,-0.09596617,-0.10366838,0.31308648,-0.07713195,0.14719743,0.009397864,0.2697959,0.3200274,0.163791,0.23491171,-0.23717146,0.25309938,-0.41882226,-0.09231148,-0.04323382,-0.20209813,-0.13817668,-0.47145075,-0.5610927,-0.06155849,0.30217522,0.25924397,-0.3347358,-0.3966519,-0.15240632,0.16644369,0.089693636,-0.022919187,-0.13787766,-0.37081444,0.17267898,0.13899758,-0.3971022,-0.09667692,0.29716185,-0.24662672,0.17558908,-0.49071178,0.20854272,-0.22622372,-0.5453487,0.32988033,-0.17049901,-0.35818276,-0.07899922,-0.18234602,-0.15283176,-0.14509219,0.12500316,0.13925494,-0.25745636,0.020106466,-0.11218331,0.009030637,-0.12450599,-0.035183124,0.23421831,-0.16118447,0.26663303,0.15044078,0.14144735,-0.04650255,-0.105407275,0.06533934,-0.35844126,0.39019927,0.13114306,0.059561294,0.55180156,0.041324932,-0.25285855,-0.015313934,-0.058047663,-0.09273899,-0.102438495,0.2968218,0.05839072,0.32498124,-0.17922443,-0.20267978,-0.43041614,-0.42592034,-0.1655405,-0.19662409,-0.07757942,-0.12805624,0.22121406,-0.24723361,0.26097882,-0.06871417,0.32026777,0.4050005,-0.22966509,0.33246455,0.07442516,0.5904537,0.09417401,-0.10173916,0.029684806,0.24197988,-0.3511973,0.26744795,0.033594053,0.0040782695,0.254359,-0.105865724,-0.13594244,-0.022369381,0.15342174,-0.3320814,-0.14161666,0.20698893,-0.020449229,0.08605431,0.07877653,0.11699563,0.10435574,-0.39995003,-0.24910769,-0.071927205,0.55003047,0.14151368,0.42958713
TSPAN3,-0.19160378,-0.2329672,0.2304292,0.069523916,-0.11645297,-0.119295605,-0.0070203324,-0.17257848,0.30828816,0.08819086,0.033983372,-0.594309,0.15314306,0.031918935,0.8608449,0.020713093,-0.1209129,0.034086045,-0.28339773,-0.2001618,-0.2556645,0.054626293,-0.068776645,-0.18551242,-0.0012461286,0.36033714,-0.06715497,0.021666257,0.19343515,-0.60052973,-0.21197173,0.80261844,0.32517785,0.39492196,-0.19709046,-0.34413606,0.40773487,-0.47431928,-0.3749269,0.08659906,0.39056268,-0.8068059,-0.14658399,0.36095098,0.42863154,-0.7228973,0.03679331,0.15129906,0.26978695,-0.05630944,-0.32341745,-0.2608021,-0.10961201,-0.15403004,-0.024064971,0.15689391,0.21819954,-0.27855602,0.42873913,-0.40592805,-0.17235893,0.026001072,-0.0027745895,0.085860014,0.3071822,-0.16720195,0.27467814,0.30140454,0.5225132,-0.65810996,-0.3699492,0.11605518,0.04575646,-0.35425866,-0.12492187,-0.56492263,0.0633268,0.78464866,0.33877835,0.13322501,0.46488437,0.012139019,-0.53063804,-0.29016143,0.089861535,0.11347032,-0.12813921,0.16278292,-0.2799048,0.03199194,0.19030058,0.15455633,-0.08713205,-0.18193692,-0.128528,0.20080422,0.152237,-0.051982634,0.0012643901,-0.35922983,0.25957483,0.35646257,-0.19962336,-0.08173435,0.28724027,-0.46229494,0.16686605,0.13754986,-0.47515866,0.31334087,-0.078631125,0.4140037,-0.38076288,0.46342131,0.40628654,0.49122247,-0.17701617,0.17238694,-0.50306195,0.13524409,-0.05946856,0.9539608,0.26848173,-0.3049888,-0.032286692,0.09078397,0.26614934,0.24840793
GNAS,-0.073356286,-0.21726257,0.11415842,0.05362905,-0.014743232,-0.28034678,-0.4716327,0.3088048,0.3370379,-0.2782467,-0.39046004,-0.26350614,0.23200746,0.07373736,0.24478452,-0.38309997,-0.23409748,-0.111820444,0.025093203,0.12625161,0.12991704,-0.25238422,-0.34808245,-0.075253285,0.39878333,0.06640091,0.12836716,0.098561995,-0.22579579,0.020495635,0.024258062,-0.08018986,-0.21604657,-0.0035374893,-0.2014394,-0.12635744,0.124930575,-0.23546228,0.3272849,0.11940479,-0.04538132,-0.25024596,-0.14394908,0.41521704,-0.3167379,-0.47661483,0.021845672,-0.14122733,-0.60103524,0.45778874,-0.4920124,-0.14355187,0.116342925,-0.36668643,0.1657426,0.07018156,0.10179366,0.09376702,0.17700107,-0.22495036,-0.14758219,0.492357,0.0051795547,-0.2354617,0.227564,-0.28586838,0.19552329,0.17878321,0.207236,0.3176447,-0.061509974,-0.16027468,0.19055067,0.23378901,0.24199378,-0.2190404,-0.014438138,0.20926192,0.4466096,0.17335652,-0.2340857,-0.23964995,0.21910985,0.103850126,0.14374717,-0.1276171,-0.09959912,-0.10792277,-0.10336032,0.12666537,-0.023589335,0.35811377,-0.07042719,-0.065239474,0.11084989,0.17732877,-0.36160073,0.23521747,-0.53014076,0.16870935,0.34157652,0.009168548,0.021332683,-0.17394549,-0.24244863,-0.119810954,0.254016,0.3427437,0.09807589,-0.0439911,-0.2851052,-0.14556481,0.4102021,-0.24777244,0.015228688,0.24114548,0.03851842,-0.21012038,-0.03235463,-0.30970412,-0.044567205,0.042630453,-0.04524438,-0.01617674,0.102331914,0.37984243,-0.042583875,0.17144331
HIF1A,-0.21343015,-0.05763987,0.121936925,0.2753385,0.22013283,-0.1769347,0.0648762,-0.14528733,0.28436884,-0.09400434,0.029927876,-0.06821142,0.059433017,0.015643688,0.15323703,-0.40031657,-0.14840132,0.096084915,-0.38915357,-0.0716312,-0.4729999,-0.072020456,-0.25756437,-0.37409586,-0.15514272,0.36011603,0.3146209,-0.11829695,-0.32182837,-0.16987735,0.14973605,-0.09924835,-0.33513525,-0.16908385,-0.50946057,0.13448049,0.043335866,-0.31521574,0.14046484,-0.01910234,-0.19155021,-0.10597594,-0.078697056,-0.054801617,-0.16494825,-0.23382595,0.16043727,-0.04523984,0.021335958,0.008529151,-0.22742598,-0.007666124,-0.051664375,0.17743725,0.34435558,0.09428878,0.3594096,0.15476523,-0.09113306,0.08778682,0.090066314,-0.12817109,-0.11403448,-0.42004305,-0.07061417,0.25071317,-0.2712795,0.0022631488,-0.20523055,0.02849007,0.15224732,0.3672507,-0.15709494,0.12463907,-0.04717106,-0.04254547,-0.15032603,-0.27223513,0.34556735,0.26176065,-0.07654784,0.36974588,0.36826092,-0.18249837,0.3762585,-0.1126215,0.05599178,-0.31287965,-0.0776613,0.3018181,-0.2459856,-0.022629915,0.1332268,-0.06679852,0.06667367,-0.117983535,0.17814381,-0.16328439,0.20355469,0.01687236,-0.027321415,0.045551788,0.10960897,-0.23474541,-0.025233507,-0.18582469,0.08850883,0.19240832,0.1266634,0.14493553,-0.48916963,-0.29913402,-0.42068928,-0.3857678,-0.057093587,0.101505816,-0.014725868,-0.29029924,0.14281271,-0.019433843,-0.06406408,0.12269984,-0.019499844,0.17490518,0.24736676,-0.24252549,0.09955408,0.05074358
AARS,-0.38023582,-0.41160682,-0.16412319,0.19611089,0.5461726,-0.083055295,-0.1906847,0.3336329,-0.023189802,0.13012394,0.12761423,0.032913115,0.33972692,-0.046956364,0.61240786,-0.12855788,-0.11959179,-0.41303313,0.14457564,-0.2624942,-0.5527699,-0.06976517,-0.29469955,0.4583288,-0.0076431446,-0.12863687,0.026789855,0.28207764,-0.38668692,-0.4953845,-0.09725713,-0.38084176,-0.20887047,0.11623413,0.24706501,0.4723532,-0.2523844,0.2982479,0.08117556,0.13137385,0.1384615,0.35813126,0.25229898,0.054347247,-0.122998185,-0.1567674,0.08277553,-0.0926858,-0.33257258,0.17217658,-0.18670431,0.16589424,0.44671607,0.018015724,-0.036763754,0.06758911,0.009468261,-0.025383526,-0.18918881,0.013687517,-0.29331186,-0.31669718,0.22074802,-0.2582368,0.5074569,-0.034310304,-0.12938075,-0.10462649,-0.08231999,-0.20393762,0.033431817,-0.27086654,0.3054549,0.1486236,-0.26426777,-0.16250254,0.1021431,-0.5012378,0.46876648,-0.43126222,0.3717728,0.68101907,0.15462334,0.5056285,0.07436726,-0.25112596,-0.0631596,0.09209285,-0.10299296,-0.21686661,0.19621985,0.02715254,-0.40296504,-0.053476132,0.11569774,-0.35128132,0.18515778,0.020556953,-0.09950624,0.16893302,-0.05486537,0.10774686,0.09966011,-0.031788357,-0.014793682,0.5593174,0.36335552,0.65320873,-0.4048269,0.21705008,-0.011849107,0.117444776,-0.21353605,0.27742967,0.055469796,-0.18131457,-0.10580051,0.00094788946,0.017736154,0.0420587,0.043822087,0.1450418,-0.2671187,0.023264324,-0.2462921,0.07600113,0.035876736,-0.019261362
RPN1,-0.094553865,-0.37127092,0.14624847,0.23026271,0.44012356,-0.16210651,0.044677563,-0.15494336,-0.22839837,-0.12774062,-0.2556581,-0.047625225,0.17398511,0.1502701,0.13768522,0.047687512,0.13505018,0.18861924,0.034334842,-0.10574983,-0.19659655,0.029553182,0.018866127,-0.051217306,-0.016881742,0.3478559,-0.37835118,-0.14825799,-0.59839463,-0.1540747,-0.11597635,0.10070679,-0.69059914,0.25469038,0.0478352,0.18313064,-0.11467046,0.11906885,0.07992016,-0.28622672,0.17650105,0.15331621,0.08096585,-0.041524563,-0.33591318,0.14901175,-0.166672,-0.21835276,-0.28208837,0.1837754,-0.24749945,-0.024246225,-0.33026883,-0.008117798,0.043389417,0.20918252,0.3754236,-0.083700664,0.21975616,0.61380184,-0.18629187,-0.42757356,0.06276289,0.2041847,0.18504567,0.24157347,-0.13777363,-0.05991683,0.1651199,-0.1619578,0.22626738,0.1457584,0.041758034,0.092607185,-0.12230835,-0.1270386,0.13199355,0.14664835,0.6991165,0.22730443,0.018750949,-0.3243686,0.066892885,-0.14328353,-0.11885818,-0.050517123,0.14220756,-0.09643397,-0.2824554,0.11343142,0.07548784,0.23643981,0.42371038,-0.20040691,0.058168825,-0.18998298,0.17451657,-0.19541122,0.29961127,-0.22691448,0.17429915,0.39481375,-0.16214749,-0.13357346,0.56901497,0.21369433,0.2872222,0.31691363,-0.19865443,-0.23727883,0.5006395,-0.14185072,0.068361804,-0.09140217,0.11189996,-0.2365475,0.07744399,-0.42689025,-0.0026561613,-0.1061435,-0.0803836,-0.1082294,-0.38826722,0.25081307,-0.29910508,-0.02597867,-0.12985647,-0.022563355
PAICS,-0.016123371,0.21681523,-0.42696756,-0.26503924,0.5412201,-0.022524202,0.20647025,0.21807323,-0.017323343,0.17120035,0.023493737,-0.2649852,0.04063815,0.061673976,0.3350705,0.08208555,0.2959624,-0.056140363,0.032076173,-0.28961268,0.1333212,0.08181735,-0.1836252,-0.005592181,-0.1859713,0.0563859,0.25847325,0.30786905,-0.33061752,-0.24524571,-0.32836756,-0.047334623,-0.15815596,0.19548252,0.2121153,0.016142506,-0.15061173,0.123241864,-0.32003358,0.086971916,0.25521043,0.03034259,-0.022364073,0.118471704,-0.19550578,-0.56170166,0.14549905,-0.16810001,-0.37577656,0.6507718,0.044266082,-0.122338146,0.014243798,0.26976827,0.068154015,0.1280212,-0.12759084,-0.09844489,-0.28833374,0.11974126,-0.28849205,-0.20076072,-0.42707917,-0.27743918,0.59195775,-0.14384718,0.18985446,-0.012110225,0.15723602,-0.14139624,0.5115444,-0.29378247,0.2722341,0.28796527,-0.38490102,-0.24621761,-0.2770782,-0.0729415,0.27097115,-0.02822812,0.16820699,-0.017187912,0.365151,0.12974827,0.20969163,0.068837024,-0.25784972,-0.17842127,-0.017751543,0.24208158,0.0026142239,0.1497025,0.11120257,0.033253193,-0.30423996,0.21435617,0.13786748,0.31590074,0.05425213,0.29331872,0.18660405,0.4704343,0.124046475,-0.5354824,0.25460282,0.18952404,0.006678594,0.09788749,0.22939481,-0.35961592,0.22886369,0.110470325,0.10499944,-0.52971923,-0.22531092,0.35599518,0.41913965,0.16244179,-0.32587123,-0.0408699,-0.019516652,0.3365432,-0.22493213,0.098225035,0.01839905,0.15607595,-0.08184895,-0.08047597
BLCAP,-0.22941385,-0.12450318,-0.33481815,0.14854805,-0.015372778,-0.4306887,-0.3887085,-0.109322496,-0.4504602,0.17099588,-0.11767529,-0.27053156,-0.09239649,0.60533446,0.19060554,-0.32584164,0.09347546,-0.2954626,0.062911525,0.33808318,0.09292552,-0.20113437,-0.0059617246,0.13356869,0.43785784,0.200022,0.052512515,-0.021631723,-0.36443704,0.13175145,0.43212312,0.22339305,-0.46068057,0.18771054,-0.02852109,0.1772188,0.0030928655,-0.19590631,0.116249524,0.39370832,0.19632906,0.17887798,0.58751404,0.0041880785,-0.33908486,0.08684779,-0.38854805,-0.31086653,0.042553622,0.08793026,-0.3854195,0.4087715,0.4360174,-0.33099303,0.07486959,0.25407416,-0.016543489,0.17981051,0.66089594,0.0891945,-0.21170272,0.68931574,0.31276894,-0.12494478,0.09898662,0.14838046,0.017407922,0.739765,0.62463164,-0.35438168,0.06550157,-0.3014118,-0.3253491,-0.22487134,-0.19603756,-0.22127913,-0.034749277,-0.12539832,-0.14154178,0.33724272,0.055883013,-0.50251323,0.3792764,0.13324474,0.044955537,0.5671895,0.2597951,0.15717766,0.08861073,0.14603302,0.13415255,-0.07633624,0.13493937,-0.8223298,0.2547391,-0.08918047,0.29729632,-0.4042404,0.2680935,0.6323955,0.017418317,0.38514987,-0.26491725,-0.23145318,0.021556878,0.31846738,0.43577865,0.50942564,-0.26898515,-0.07525363,-0.4166971,0.32723084,-0.32871798,-0.0025150024,-0.13483593,-0.008580888,-0.36927497,-0.20809866,-0.23476882,0.10634274,-0.6837912,0.8337675,-0.20199382,-0.14234447,0.19440907,0.6573951,-0.038786616,0.6805054
HADH,0.2703453,-0.044647556,0.26302212,-0.43585747,0.27135035,-0.24089597,-0.10754446,0.108343475,0.22157048,0.4083041,0.08108516,0.14600721,-0.26758996,0.03789067,0.3750433,0.18720073,-0.04030034,0.076409295,0.08998976,0.08013148,0.07509533,-0.18432473,-0.17959209,0.13326025,0.10841957,0.018979874,0.022531662,-0.053316306,-0.44010076,-0.08310264,0.10536119,0.04307977,0.2212995,0.7188597,-0.4329611,0.2645625,0.16199635,-0.22428824,0.16147612,0.26553532,0.15002738,-0.24768287,-0.07235686,0.46536416,-0.29924428,-0.11289488,0.3703303,0.05706513,-0.0016638483,0.25119108,-0.079706825,0.4880046,0.1632299,0.4390567,0.5420029,0.37390044,-0.10994394,0.037011214,-0.21510325,-0.08641759,-0.46773306,-0.01939679,0.025197871,-0.3767791,-0.24843965,0.015135025,-0.2201025,0.01599165,0.3271858,0.12629654,0.059304442,0.3497489,-0.13692985,0.4899913,-0.016555859,-0.07538955,0.21982412,0.057371333,0.31377363,0.12969115,0.40569255,0.2863659,0.30805987,0.13880876,0.18911147,0.0028664689,-0.25386715,-0.16466875,-0.2524754,-0.34281245,0.0068679703,0.090083465,0.16373289,0.2418453,-0.21413003,0.19292101,-0.15471677,-0.5924408,0.4127066,0.12899293,0.38299584,0.50570595,-0.20101175,0.005274415,0.19815962,-0.13347521,0.24987599,0.09952329,-0.18960118,0.18667519,-0.31869382,0.28749704,0.14700705,-0.1812606,0.32153693,0.04236166,0.23830853,-0.15874627,0.3010195,-0.27327994,-0.076508164,0.26372275,-0.48938018,-0.15406892,-0.15992247,0.18729098,0.19042446,0.32558167
GNAI2,-0.043964148,-0.41001445,0.37298045,-0.031341307,-0.26415578,-0.013131199,-0.19105864,-0.09751352,-0.09923119,-0.15506625,0.032718442,-0.05837836,0.43952432,0.043247063,0.23830262,-0.25115865,-0.2789549,0.064647324,-0.15250224,-0.026970524,-0.10759678,-0.29159984,0.014306812,-0.10389946,0.23721702,0.2519307,-0.013400064,0.029622763,-0.26128963,-0.2078779,0.16163766,-0.06683601,-0.22850166,0.24609663,0.106212944,-0.038751103,0.14465083,-0.019254904,0.4876776,0.22913678,-0.053143855,-0.06286464,-0.11263121,0.15054831,-0.016046166,-0.44515136,-0.11629001,-0.032862842,-0.57161236,0.60550106,-0.44929525,0.13438329,0.094043665,-0.09465059,0.01678725,-0.03718591,0.24758959,-0.23915085,0.10626037,0.17873047,0.109034605,0.7529161,-0.21977888,-0.24577947,-0.2097057,-0.09444786,0.22276536,0.090424106,0.06750921,0.1337765,0.08918633,-0.22886056,0.035704065,0.24159178,-0.06597632,0.011681647,-0.06598576,0.13356507,0.064335294,0.23631796,-0.07607837,-0.32604823,0.3214804,-0.01944066,0.0017923617,-0.33764818,-0.25334167,-0.079815805,0.042430002,-0.15894015,-0.40754977,0.30138844,-0.029257003,0.013823784,0.04476562,-0.025507918,-0.050245672,0.14061937,-0.16939896,0.059139527,0.48619306,-0.07940485,-0.05876292,0.063150436,-0.35772532,-0.31893492,0.13613407,0.2583886,0.11272172,0.18111266,-0.054441888,0.08024518,0.167458,0.10547623,0.29001608,0.22778405,-0.043694627,-0.2977648,-0.18781781,-0.39512792,-0.05679,0.23962496,-0.0366315,-0.007315792,0.2839967,0.17876658,0.062260836,-0.19704948
PSMF1,-0.25785166,-0.42141438,0.07005509,0.64006734,0.14964518,-0.10747224,0.4183135,-0.21287712,0.49401742,0.23290162,-0.22266717,-0.06331855,-0.059728786,0.12856695,0.17481686,-0.23652971,0.07284526,0.29332128,-0.14662927,0.21579508,0.06124176,0.016277485,-0.17676009,0.07151792,-0.08998007,0.40744707,0.019390628,-0.1276514,-0.583475,-0.4054492,-0.09836304,-0.06281191,-0.29889953,-0.067857735,0.075138114,0.09551668,-0.13444492,-0.14381349,0.090722725,-0.06983661,-0.1263662,0.05076956,0.0775242,-0.10846979,-0.13409686,0.043495808,-0.0119544305,0.11913866,-0.10057181,0.13599353,-0.05385009,0.3129057,-0.166502,-0.08101155,-0.021483999,0.04232514,0.31211215,0.009522789,-0.080364935,0.292497,0.009103204,0.16028279,0.2582178,-0.30211762,0.2576457,-0.006747477,-0.12305713,-0.22066164,-0.20102718,-0.33052838,-0.11031156,0.16696025,-0.057510465,0.016016427,0.19201732,-0.20002131,0.019450406,-0.11870744,0.29083714,0.080692336,-0.10050537,0.17063133,0.18875784,0.1645678,0.083369814,-0.30817455,0.23370248,-0.21417531,0.032721862,-0.0006780934,0.011034978,0.13194431,0.10122273,0.040788718,0.039869852,0.10449378,0.019665292,-0.018633971,0.07519555,0.04746674,0.13406311,0.32794842,0.13320003,-0.27575827,0.37118167,0.110896446,0.054088693,0.11684095,0.06212388,0.22233948,-0.12656832,0.030600024,-0.4473514,-0.39922,-0.01062499,-0.17259553,-0.15088423,-0.2700673,-0.36269367,0.038963877,-0.15502714,-0.0044150795,-0.31052196,0.20838383,-0.019471828,-0.23375459,0.54925156,-0.1725777
MYL9,0.275099,-0.27571547,0.47877973,-0.0071221157,0.33518794,-0.14302203,-0.106553875,0.12351677,0.13316615,-0.26539865,0.5341861,0.012835453,-0.44490853,0.18530716,0.6013398,0.28026858,-0.066783525,-0.05639633,0.33757928,0.06093976,-0.35059094,-0.34892017,0.089837484,0.0722819,0.06941443,-0.1657657,0.2797118,-0.31701988,-0.43652636,0.128742,-0.046024997,0.34493756,-0.32209247,-0.19701879,0.0039369254,0.2130521,0.26143393,-0.16445008,0.016908327,-0.1268873,-0.012475049,-0.41633496,0.10451259,0.29077822,-0.03404639,-0.23627457,0.08451974,-0.102945775,-0.15173364,0.32784322,0.32457426,0.06046378,-0.24256086,-0.14703542,-0.20764887,-0.030993164,0.047169834,-0.10804514,0.004432998,-0.1576179,0.2757152,0.4106549,-0.14030816,-0.072928146,0.12000031,-0.35050967,-0.014531425,0.00194184,-0.001293882,-0.11668081,0.16554543,0.1878108,0.32531407,0.15779734,-0.08851527,-0.5325719,0.37525487,0.061764672,-0.3025925,0.25991392,-0.19896694,0.06081721,0.04780713,0.16590887,0.08769279,-0.20024955,-0.08717293,-0.2003741,0.14014247,-0.45858094,-0.13323413,0.12849626,0.29057905,0.05477516,0.01496106,-0.3377681,0.09955542,-0.16384418,0.18243141,0.15043662,0.34964994,-0.25967023,0.42855304,-0.10403448,0.58450234,-0.24934632,0.23622668,0.22950006,-0.15721695,0.12381646,0.22840802,-0.23489992,-0.28454491,0.2649073,-0.25199893,-0.27445936,-0.4703154,-0.16948278,0.061208174,0.14730732,0.2871889,0.4234242,-0.15905467,0.03132125,0.70423687,0.01624983,0.108536445,0.09391452
MMP2,-0.032981366,0.0902103,0.21545753,0.395822,-0.19527598,0.14476597,7.099759e-05,-0.4244896,-0.14184412,-0.38206172,0.42208773,0.020172209,0.10660352,-0.059670847,-0.05246384,0.100363255,-0.30791593,-0.1575093,-0.0088429395,-0.29245222,-0.24753626,0.18811505,-0.06897613,-0.44139114,-0.057765324,0.40958363,0.13342777,-0.0024608064,0.021668496,-0.30029714,0.14596996,-0.1358489,-0.042001754,-0.160056,-0.121895164,0.19026835,0.5181717,-0.38232565,0.02895332,0.043994084,0.12871872,-0.37518623,-0.18719439,-0.016272292,0.073144056,-0.29595646,0.19118536,-0.47234008,-0.10381581,-0.021959249,-0.3424731,0.06805903,0.07345008,-0.23977192,0.11172396,-0.08893717,-0.029509407,0.20925607,-0.2481034,-0.037558265,0.2626112,0.23047115,-0.11360539,-0.24286628,0.20287463,0.05446312,-0.07690409,0.1437869,0.16827486,-0.03697365,0.06741862,-0.09573553,0.3625861,0.06374834,0.19465403,-0.34137,0.0064340564,-0.01794201,0.46767905,-0.107098185,-0.021811765,0.18467024,0.078788266,-0.1669953,-0.08585975,-0.08504167,-0.2993351,-0.12744406,-0.09394285,0.12093736,0.058372118,0.15456891,0.18535256,0.13394149,0.14205596,0.067107335,0.10112378,-0.3014022,-0.06673203,-0.31763572,0.4438745,-0.061993327,-0.035614584,-0.09137749,0.2317276,-0.34682432,0.29549116,0.13123497,-0.034031738,0.24940398,-0.3194137,0.06369631,-0.2838263,-0.07390497,0.09260994,0.12958567,0.049118876,-0.20016661,0.027988741,-0.16961731,-0.10490563,0.02033918,-0.024842922,0.05135553,0.65002364,0.01600291,0.23012532,0.087314576
SMARCC1,0.3685066,0.11190188,0.06129046,-0.21112007,0.17570597,0.070725754,-0.18529749,-0.17079103,0.15733157,0.24244332,0.685166,-0.38280684,-0.24222574,-0.074740626,0.21517053,-0.053528097,-0.05293408,-0.14765434,-0.3632159,-0.11288057,-0.3672478,-0.1098638,-0.071936734,-0.010204981,-0.09896857,0.019527039,0.33449858,-0.27233446,0.053029332,-0.33450434,0.07053129,-0.0025201838,-0.18123636,0.17634568,-0.24188063,0.17480485,0.37034822,0.22953296,0.20840012,0.12440273,0.021618035,-0.10535454,-0.45915797,-0.05116275,-0.05100729,-0.32863206,-0.11198324,0.07029721,-0.21638562,0.15152869,0.08062268,0.33768225,-0.68372625,0.06045681,0.28303468,-0.16292611,0.07929421,0.09736526,0.49548027,0.07400391,-0.2592107,-0.25602096,0.33470726,0.29561463,0.24490054,0.18156049,0.052355863,-0.08541436,0.29197794,-0.014922086,0.2221579,-0.37798262,-0.03370916,-0.4056489,-0.12652116,-0.003052857,-0.19034289,0.010249907,0.39155212,0.2060263,0.032762077,0.1733245,0.13424528,0.27856642,-0.015481107,0.030861493,0.09507974,0.08725063,0.028595172,-0.23049097,-0.17251575,0.06020022,-0.01269329,-0.4371184,-0.35119966,0.09235646,0.11393523,0.02928461,-0.26529476,0.3632675,-0.15885462,-0.17445874,0.29991174,-0.12817529,0.12509224,0.109364815,0.13327983,0.15183237,0.25390795,0.0071257697,-0.3569991,-0.33900288,-0.4465337,-0.2987717,0.31803542,-0.36646348,-0.16730988,0.2280398,-0.39771327,-0.101704285,0.092391945,-0.04102367,-0.13780992,-0.06601386,0.3208811,-0.16105697,0.25848705,-0.0094284415
TM9SF2,0.3300488,-0.41385904,0.4113727,-0.3439817,-0.034938965,-0.19363363,0.048009023,-0.17782333,-0.08552594,-0.015715472,0.082530856,0.061902855,0.15914765,-0.14556979,0.24843878,-0.52843803,0.3330561,-0.2664568,-0.47453377,0.2477719,-0.14446439,0.39663774,-0.062216893,-0.055132292,0.0337518,0.28081277,-0.761992,-0.046452925,-0.33399263,-0.21241115,0.42575058,0.6722139,0.088199146,-0.055555217,-0.49369487,0.007701652,-0.07603613,0.13070083,0.22037324,-0.08162204,0.54691285,0.020753613,0.49586955,0.023640653,0.31470427,0.027616838,-0.4433383,0.37065,-0.70769393,0.7727867,-0.49709174,0.0043412875,-0.33103123,-0.37024942,-0.06832667,-0.18343617,-0.082357615,0.31007576,0.056568146,-0.22524403,-0.96953833,0.1342718,0.18636823,0.1717987,0.14760235,0.0815099,-0.2826508,0.4760332,0.103206046,-0.49796465,0.07225724,-0.12594377,0.037951976,-0.22865854,0.13385229,-0.42870834,-0.3465518,-0.40013182,0.028549178,-0.26474655,-0.11393842,-0.22243293,0.12115874,-0.36438727,-0.059390727,-0.2809886,-0.54288226,-0.41137946,0.11840594,0.32236597,0.5874504,-0.31798482,0.09408731,-0.033262543,0.11412365,0.30029318,0.12751707,-0.6331861,-0.09083784,0.15454446,-0.0034945067,-0.09403947,0.08332682,-0.19641954,-0.0035180114,0.17401761,0.18369538,-0.057424903,0.19945008,-0.16757825,0.56984127,-0.3230473,0.13423318,-0.16925097,-0.71417236,-0.13690215,0.28155404,-0.1975802,-0.3140699,-0.1195149,-0.20748681,0.06201641,-0.18659034,-0.5020533,0.087542154,0.28669262,0.18197586,-0.058829676
PIP4K2B,0.032232944,-0.396535,0.19723606,0.43478858,-0.08714754,0.15853193,-0.0034791564,-0.12528072,-0.06122093,-0.19634458,0.10455621,-0.31255376,0.2241107,0.17704631,0.0666715,-0.059805017,0.16749562,-0.043357763,0.20707063,-0.026451377,0.10922064,0.23728588,-0.29644406,0.28454667,-0.07012514,0.30981812,0.4096053,0.046502575,-0.32981852,0.094224885,-0.09547876,-0.010493504,-0.31005114,0.09652188,-0.042776693,0.57617396,0.2869529,0.10768057,0.18782616,0.04862036,0.2812207,0.27447847,0.1585184,0.65783185,0.31261355,-0.22112483,0.45353043,0.009117002,-0.34880528,0.35033497,-0.13535435,0.08178736,0.099144414,0.01273568,-0.23046915,-0.048796695,-0.07314282,-0.52869344,0.6846944,-0.48493797,0.2324736,0.0869297,0.39452028,-0.5617862,0.06314286,0.017639695,0.5259848,-0.2697326,0.014672027,-0.26038778,-0.26701733,0.00481675,0.077081256,0.16035727,0.024613272,-0.55096155,0.026634632,0.17045921,-0.26858425,0.082040444,0.2146851,-0.077811465,0.39913929,-0.32080886,-0.21897787,-0.19420272,-0.251471,0.141335,0.17938706,-0.10795984,-0.036372095,0.37736076,0.2705966,0.25232658,-0.04812178,0.13358952,-0.021587407,-0.20054705,-0.1524979,0.36196116,0.21459568,-0.06782119,0.24256864,0.26096258,0.44601429,-0.45328692,0.028755963,0.2632786,-0.080297865,-0.32356936,0.25314596,-0.18753766,-0.11453649,0.23681046,-0.27187547,0.24136008,-0.022129523,0.10748022,-0.11231135,-0.56912154,-0.2912187,-0.11648612,0.022677453,-0.15487844,0.0651862,-0.14386493,0.10900785,0.123507455
PXN,0.19326521,-0.3603417,0.249925,0.14412084,0.13333619,-0.028863532,-0.1223261,-0.321221,-0.03334224,-0.27177104,0.37463495,0.017377347,0.007686565,0.07081069,0.52442074,0.04715571,-0.03548862,-0.07256547,-0.06738242,0.29079947,-0.051769614,0.12385367,0.14279427,-0.041498087,0.24069706,0.053801626,0.21114121,0.05873486,-0.24721776,0.009329973,0.03427713,0.22814418,-0.15771045,-0.1340208,-0.18635261,-0.044894636,0.32479998,-0.4263344,0.07682295,0.052302398,0.014146248,-0.3025925,0.22849952,0.39795727,0.20741162,-0.2959248,-0.1831948,-0.33339992,-0.26004308,0.12210843,-0.26873833,0.18581612,-0.23563485,-0.18315902,-0.18730038,-0.3216941,0.07896194,-0.3724627,0.05484792,-0.117873125,0.24450332,0.29009348,-0.36408228,-0.37867424,-0.010981626,0.027900001,-0.04227834,0.18799475,0.18796875,0.09845212,0.00019864835,0.20008563,0.3746973,0.03358243,0.09303325,-0.07838459,0.08013139,0.08930567,-0.1020255,-0.059045624,-0.26467448,-0.05009335,0.08772234,-0.04077127,-0.0033100594,-0.29582983,0.043683745,0.06776183,-0.110457964,-0.05502238,0.0885556,0.3177884,-0.016427169,-0.18301123,0.00838535,-0.37035212,0.097815715,-0.30604422,0.071295045,0.05605776,0.3540474,-0.3087809,0.07205324,-0.06438794,0.5361046,-0.3330249,0.3594725,0.21013023,0.05446572,0.03847493,0.10763511,-0.11238752,-0.14610268,0.0019350467,-0.017584788,-0.1023954,-0.27894384,-0.16952108,-0.17483948,-0.14216991,-0.13757539,0.24640656,-0.18131424,-0.14392066,0.22028477,0.16994621,0.021916827,0.14458029
COPB2,-0.15154414,0.2565559,0.17627102,-0.19483024,-0.17264466,-0.08305228,0.02474525,0.26856405,0.021240762,-0.05791784,-6.582612e-05,0.45743522,0.20367354,-0.41140714,0.3185969,-0.07454311,0.18323562,-0.43365481,-0.14589092,0.17264482,-0.014092392,-0.3772582,-0.3485289,0.3259688,-0.43588144,0.0056219813,-0.14637424,-0.07871825,-0.20057058,-0.16328119,0.02980292,0.0020260795,-0.37375787,-0.34992388,-0.047351312,0.02578641,-0.003029236,0.10382436,0.15421297,-0.051835947,0.08426737,-0.17629579,0.1596253,0.055034645,0.30755606,-0.2014828,-0.04893663,0.31888974,-0.12912029,0.13324107,-0.20692204,0.5064166,0.36120576,-0.15039305,-0.10049811,0.12829748,0.16886353,0.11304199,0.29080105,0.05738817,0.15870604,0.050539993,0.05641639,-0.17888762,0.13123275,0.16402693,0.32520083,0.18402429,0.23565805,-0.15043235,0.029522808,0.2997943,0.025623286,0.15969172,0.10066973,0.27905604,-0.035967976,0.15115611,0.3450294,0.035044264,0.25256908,-0.11719981,0.3483968,-0.39509553,-0.23591809,0.1323495,0.03115128,-0.18497528,-0.08510825,0.053078994,-0.04305819,0.13456,-0.02924901,-0.15809685,-0.47311717,0.07743911,0.057118267,-0.31184974,-0.17640784,0.010571565,0.5209036,-0.1167405,0.17744833,-0.038859874,0.558434,0.04541628,0.31548667,0.4513179,-0.10246731,0.01803293,0.23739609,0.05205396,0.008511347,0.2739788,0.06087522,-0.31410027,0.22885305,-0.1840571,-0.3383492,-0.18716286,0.1821183,0.14921631,-0.5070716,0.05799398,-0.03861593,-0.11112391,0.0014016599,-0.15813674
PFKL,0.388654,0.24375075,0.0924365,-0.20730053,0.50028086,-0.15598585,0.22025989,0.2599844,0.14615454,0.20723294,0.08796816,-0.19462055,0.30897918,0.45786616,0.31158203,-0.26880813,0.21435875,0.17936717,0.23986295,-0.29392305,-0.014844738,-0.35500336,-0.4602139,-0.19980092,-0.2003025,0.10642696,0.38411078,-0.2964907,-0.018518612,-0.10404727,0.23473074,0.04542729,0.028443387,0.027146228,-0.42084244,0.26442513,0.3040889,-0.27374148,0.31403914,0.14982888,-0.096837744,-0.0006264258,-0.17941825,0.23831576,-0.54782504,-0.2517674,0.23221657,-0.03946222,-0.2702207,0.23863456,-0.11407522,-0.24451616,0.17783731,0.12120875,0.4464219,0.070912816,0.16060033,-0.35492066,-0.42560354,-0.14517248,-0.090534955,-0.20676629,-0.33418226,-0.024206048,0.022021346,0.2334009,-0.46625125,-0.037125956,-0.08819866,-0.24112454,0.42705706,0.46462226,0.09320027,0.37356868,0.11668674,-0.235877,0.21821162,-0.2558602,0.03179645,-0.007661086,0.11087385,-0.14839637,0.30244124,0.09805136,-0.23023081,-0.3426186,-0.52971005,0.18346718,-0.36565578,0.21828155,0.052599683,0.078110516,0.055237602,0.15792294,-0.23219615,0.23940176,0.36577344,-0.32247385,0.55210155,0.13733086,0.31874904,0.17249775,0.097427525,-0.23857771,0.12617363,-0.054126907,0.3837134,0.37031087,0.20856176,0.012789439,0.15318906,-0.0077951583,0.11701333,-0.14434996,-0.276352,-0.1759418,0.24502067,-0.17510372,0.016835822,-0.008787406,0.35104698,0.09201648,-0.44746855,-0.42951927,0.06345174,0.52329665,0.090827905,0.44956243
PGRMC1,0.10870843,0.14416517,0.845369,0.5630476,-0.17839514,0.12946188,0.19398482,-0.5134587,-0.34489897,0.042336866,-0.17709577,-0.076760195,0.34175286,0.21715307,0.16826491,0.14721714,-0.28391877,-0.55078584,-0.19527839,-0.24433179,-0.18032342,-0.0104571665,-0.16657762,0.10272758,-0.10245514,0.0182197,0.06553272,0.2141487,-0.3167905,-0.075693384,-0.24201293,-0.02257947,0.07099529,-0.007972895,-0.47378662,0.037613936,0.068689205,-0.15630388,-0.2604916,0.12616767,0.1217276,-0.2613555,0.21982682,0.10196934,-0.052138098,0.066545084,-0.1411108,0.27316788,0.11606323,0.2980992,-0.10724882,0.1754314,0.052408535,-0.033359613,0.15881613,0.11169431,-0.204506,0.34399772,0.5897487,0.25647655,-0.32268858,0.5498501,-0.030509738,0.20565572,0.2602993,0.06120397,-0.41763493,0.071159996,-0.20545025,-0.05877897,0.3194764,0.29847088,-0.0678873,0.22277671,-0.24298194,-0.30770648,0.07733899,-0.23663795,0.5454771,-0.26775244,0.16210489,0.17074262,0.1462843,-0.08250781,-0.04366615,0.08242677,-0.26149476,-0.44820458,0.1939923,-0.06404254,-0.050686244,0.3161759,0.11696476,-0.10709188,-0.09096318,0.17981152,-0.1399073,-0.049598396,0.072646074,-0.11474336,0.3543692,-0.020289086,-0.011355076,0.031755287,-0.13940395,-0.22585042,0.6015022,0.34534478,-0.4037858,-0.36001235,0.17914444,0.3093799,0.3385958,-0.25385362,0.20636806,0.09442195,-0.23907702,-0.063047744,0.14218724,-0.27421078,0.25733083,0.44208282,-0.19183339,0.39290527,0.16702086,-0.16073966,0.06376551,0.44788247
ITGB5,-0.017853532,-0.23358637,0.49525952,0.2651291,0.14245531,-0.034302305,-0.038487673,-0.31616947,-0.009417616,-0.24705148,0.74419254,0.11013176,0.13437001,0.34479958,0.4867894,0.3982766,-0.256963,-0.01500611,-0.04327074,0.08487636,-0.28198957,-0.006999004,0.21906647,0.040093184,0.109513275,0.18785769,0.006340367,-0.041362587,-0.23560333,0.0017030253,0.19946672,0.37622663,0.050644316,-0.1443092,-0.22875133,-0.012526539,0.64444906,-0.23371655,0.1205579,-0.05109029,0.007612377,-0.100239515,0.12597774,0.4069649,0.058429435,-0.24567313,0.082987696,-0.095004074,-0.3835697,0.04491227,-0.072121456,0.033896573,-0.40381175,-0.1438236,-0.1880089,-0.0071670157,-0.107536644,-0.1631868,-0.10020935,-0.024569504,0.20551705,0.576036,-0.2546846,-0.01917524,-0.1667499,-0.12513104,-0.1382296,0.12565085,0.26831722,-0.20845865,0.10306127,0.09657469,0.68533987,-0.0011275944,0.041033793,-0.41996157,-0.14228334,-0.11705884,0.06386122,-0.15501714,-0.11201545,0.051404197,-0.0488078,-0.16126835,-0.012956331,-0.08332505,-0.17541917,0.06964739,-0.085976824,0.14274801,0.12370252,0.4332153,0.33945903,0.04273718,-0.02356122,-0.19949768,0.24628764,-0.4073389,0.019853087,0.20467,0.31054482,0.120298326,0.24770233,0.20211716,0.41901743,-0.34280172,0.478621,0.05014342,0.25726184,0.1496236,0.2866603,-0.016989175,-0.03419204,-0.17442578,-0.12959471,-0.12759435,-0.37986022,0.13196816,-0.022987677,0.37201273,-0.05346328,0.12048447,-0.2602567,0.111830235,0.36046508,0.09268603,0.39426324,0.36637974
PLP2,-0.43315557,-0.15932076,0.20326716,-0.18231978,-0.21422611,-0.23114288,0.3695918,0.46090448,0.13251314,0.31281313,0.52360475,0.229886,0.18064697,0.010250625,0.41246668,0.3367483,0.18703982,-0.5206391,0.011116907,0.07670801,-0.6331755,-0.043665156,-0.291878,0.82242835,-0.3007632,0.38739407,-0.30143568,-0.031231882,-0.29448318,-0.12815343,0.2506757,0.295354,0.13196038,0.14918949,0.016197067,0.19719018,0.37669972,-0.9681355,-0.017690519,0.007323485,0.27344403,0.081952065,-0.3336689,0.4162051,-0.23385772,0.04331447,0.048372738,0.46627042,-0.18455248,-0.008070922,0.22567753,0.6837543,0.19851391,-0.5043062,-0.18605979,-0.07548564,-0.1429636,0.1768028,-0.44204974,0.080960825,-0.0017017423,0.14113727,-0.025735883,0.11263175,-0.29290143,0.5334141,-0.51401937,-0.44985664,0.1973232,-0.2921674,-0.042441074,-0.6277656,-0.18303148,0.50503045,-0.13549048,0.08417552,-0.51729095,-0.20356274,-0.20534213,0.383996,0.3027013,0.14455658,0.1395226,0.2136612,0.14282897,-0.048793554,-0.14358269,0.12725292,-0.08594552,0.4934058,0.29775164,-0.3449305,0.60693485,-0.46038467,-0.65950245,0.16929232,0.63473624,0.5201948,0.12282328,-0.35427564,0.5205157,0.21841861,0.35918254,-0.09229534,-0.28972715,-0.6057055,0.39359534,0.4598306,0.2408341,0.10369219,0.41793537,-0.106467284,0.17136681,-0.1478932,-0.058049254,0.032288425,0.18382134,0.6637894,-0.13584808,-0.36789602,0.0803232,0.25658157,-0.24719732,-0.2781922,-0.36910397,0.050816525,0.121396534,0.383701
NFE2L2,0.25485855,0.23845883,-0.20277348,-0.20655754,0.5844007,-0.21243578,-0.20073526,-0.009509169,-0.08750024,-0.19748147,0.39369464,0.015178248,-0.057661682,0.10366299,-0.0110671865,-0.117628805,-0.11631556,0.075342916,-0.057346642,-0.18963937,-0.41455138,0.31340826,-0.19184843,-0.020961815,-0.11813862,0.49099398,0.17746891,-0.16279382,-0.066489466,0.11193494,0.21259223,0.07541868,-0.27731365,-0.15936114,-0.46040016,0.02551583,0.38026017,-0.30482918,0.25123662,0.5807436,0.07641685,-0.10176097,-0.24503635,0.17785135,-0.0063839047,-0.21370795,-0.25373432,0.2925097,0.06828201,0.67336565,-0.22068761,-0.19679357,0.046421595,0.39306042,-0.12349112,0.12967949,-0.0014112215,0.17825003,-0.41277772,0.4977659,-0.38324282,-0.22912677,0.020941526,-0.2568854,0.06684443,0.32854947,-0.04862673,0.13178732,-0.3046214,-0.11665516,0.40314955,0.06349448,-0.08007271,-0.03737513,0.054767918,-0.042538296,-0.1984339,-0.04200449,0.4230213,0.18919179,0.18974331,0.5230181,0.24283081,-0.026683433,0.03912507,-0.44205815,-0.01592074,-0.032672685,-0.1109767,-0.31188023,0.017581746,0.4465673,0.08433012,0.16766565,-0.18174568,-0.12568145,-0.03177123,0.1346132,-0.09995589,0.004376985,0.16160247,-0.08480696,0.19256343,-0.08111542,0.18417908,-0.18400225,-0.08597447,-0.085088156,-0.2322423,-0.025501665,-0.24393319,0.19555321,-0.0049071424,-0.06926815,0.38247845,-0.14475118,0.06362407,0.23062964,-0.11886225,-0.52815294,-0.11600387,-0.034798622,0.25169873,0.2654879,0.39351252,-0.02842805,0.4127077,0.23834434
